@CO	shape:(6787,)
@CO	dtype:float64
VALUE_0
-0.02689657582104621
-0.0030849594644503514
0.5766354137054303
-0.04485703893378832
-0.0004098961823690052
-0.04219292477853672
0.17467654622471349
-0.8304643664803586
-0.3139517861731945
-0.025466560057359904
-0.13626867107974847
-0.47445580137594767
0.7546031856746273
-0.1023442811646879
-0.3782952136971169
-0.2600357258580247
-0.0029596604143850803
0.5509400072662031
-0.047034353721902664
-0.028372971273417043
0.020389443797919998
0.24276147480462731
0.18178149229220184
0.013459210020951056
-0.4042239007337352
0.21970125656099204
-0.0787589987060641
0.4498680531928502
0.25628016972877554
0.16143193046528412
0.27605206184233944
0.034350714398758087
0.18310209770445177
0.1259984255293465
0.04493318063580623
0.007825151560421332
-0.043276977811503074
-0.21707299413992634
-0.012817131965104183
0.2690291354535318
0.2955953121396002
-0.233952204139658
0.07992150173390003
-0.1733045257473839
0.1603195781837573
-0.525063271767273
0.3880930795425344
-0.08899309588810522
-0.18903758582906766
-0.7275680241983369
-0.07248170728657308
-0.5516062935164008
-0.022276933465416232
-0.8228963600915086
-0.2831678178349211
-0.26061521607214055
0.14602393859115986
0.09006918927708703
0.010151231631180561
-0.3106480697674039
-0.2713474138529383
-0.35654285689772025
-0.28091150454296454
-0.1801937388586759
-0.10314113282071347
-0.1487490812921741
0.18178606513901785
-0.12311462658069733
-0.2940716238131806
-0.3599777426786597
-0.5340805996064294
0.17937759129583594
-0.024430574365322536
0.05062055270665076
0.10501278962645172
0.011647973363609527
0.05718773788363478
-0.0779448235663152
-0.24091505925350884
0.10407628653888128
-0.050862487143452914
-0.38593603840655705
-0.06913728793510525
0.1568778354935626
-0.5435911608018428
-0.22991527886373397
-0.020273159352139754
0.02807913910413749
0.20781929143742905
-0.3876314022712641
-0.3601557288041423
-0.14051108270154009
-0.5788495219511536
-0.10812896407794995
0.3225157190493544
-0.006345807690221724
0.15458017719931066
0.2119514298384403
0.11121683430343832
-0.4692247016221376
0.48091484344177204
-0.24383012851371547
-0.46596235873905417
-0.15669779149702084
-0.24746000596435713
-0.14778591957743645
-0.48087191693989517
-0.1256363490657238
0.28353766724824947
-0.3382509493102996
0.14580666909963752
-0.10265698858618133
-0.4288439555230268
-0.23113117933451616
-0.0636911699255117
-0.02522218882581838
-0.17010301640382727
0.4894276538599766
0.019817412453130203
0.08295302209045624
-0.011865023165414476
-0.12525790311994078
-0.36230263634852916
-0.11945592506944469
-0.2714354935521789
-0.28973667824819266
0.24860378593166083
0.013412867466752154
0.3566973324728699
-0.6800321180086067
-0.0822847949030465
0.22195067890207554
0.05838521649113355
0.21993126879574934
0.12828910641700556
-0.45645851063245974
-0.017069765324787194
-0.10025507714563289
-0.21245805831725956
0.23633113223782523
0.22234591899877287
0.03869656641598208
0.12390876305824254
0.27614867430103357
-0.0463947431377779
-0.6029164393838417
0.23307251939695534
-0.39839454063817814
-0.36241895748477326
0.09341290574613309
-0.27131518276846217
0.0012428999214809386
-0.11863004820922013
-0.34793907461099427
0.011026159273816064
0.40370807372062445
-0.26872138192880834
-0.13321731549682536
0.005147309379306049
-0.020749334267967837
0.011228950605917434
0.017189234049279092
-0.13858316419732733
0.17595551355821
0.510893842379554
0.0644513685187572
0.06252829932007574
-0.0802677018753616
-0.32446351883415847
0.03631479418578238
-0.06010961947659397
-0.4335567493885983
-0.3637707774114305
0.5582283374610052
-0.005298429076137347
0.29286412311846477
-0.16723771379594957
0.0901144135370328
-0.37605993473507543
0.4374121353893847
0.047633489397213485
-0.14158960852168723
0.14138823230121958
-0.024140829611695273
-0.2200001157664389
-0.00932253124979311
0.08406091724824509
-0.06397504061697673
0.6639051715925612
-0.2802202497962501
-0.17350987992464573
0.17170648132602037
0.05223638659899709
0.19830749913834206
-0.027919002135434502
0.49866689178457396
-0.6441088911151482
-0.15461492049993375
0.08351181381137802
-0.12361379902267577
0.3218523737903294
0.06989716029918902
0.9866099493062472
0.019229425204196033
1.0996130462285947
-0.014742614590671914
0.031556202191495915
-0.013445925458349123
0.2105924018751215
0.09481644487942098
0.06171034005178408
0.5484433397592523
0.10728837482364727
0.8419301655170099
-0.13906627906728153
1.025419358324572
-0.19232851609575874
-0.0951785501528719
0.17212471435560725
0.06885571918658093
0.010074927778317394
0.21665953622960163
-0.7648362926675614
0.4400739959837634
0.14281061994486527
0.5991527381766352
0.11073362396952745
0.01369550454959125
0.3392877583184935
0.12063889411294085
-0.30573443877603346
0.22705764458768746
0.5871265081747274
-0.3983493661193194
-0.2696255719885539
-0.04658095708002482
-0.44706055047592486
0.3881744070052871
0.3116882841688598
-0.16277914522316297
0.08803589610018632
0.12056519294793927
0.2146727117360909
-0.3029254212058841
0.45002500791660094
-0.03919220546724547
0.298881109520376
-0.022870159880466014
0.09138920063963807
-0.09399948385038935
0.5572601706500869
0.471765910807877
0.2746320010787511
0.4608989096714261
-0.4649562209231232
-0.05737444952210165
-0.4390834465135949
0.26629090623149904
0.06870566984729017
0.3615355951720318
-0.016401524330417416
0.07407226131612811
0.29719568393551893
-0.3685994053125018
-0.5659528987009442
-0.02373079368566135
0.2762589568037302
-0.3711755708434215
0.13753249286772695
0.10301063851473712
0.007163249483642212
-0.12181364984201706
0.17628801017330373
0.08677669258454337
-0.039751617812128756
-0.39426196059578006
-0.010380615587328744
-0.2453044932820729
-0.5919721976896666
-0.074770612965421
-0.9279445306106021
0.09698409951372704
0.3645710061886945
0.05416140558527342
-0.5271504927494244
-0.729829190289397
-0.486624056673375
-1.0688737003173268
-0.9030667617108846
-0.3832986391974913
0.20531535470960502
0.03200094945806896
0.18998959849512903
-0.11414437326497118
0.2849397722781308
0.36067737727224014
0.983034338320621
1.029775941834473
0.6441418080254901
-0.6283914039754823
0.34236605518889496
-0.08386871313575417
0.079890656914851
0.3580255816409291
0.05731833550469253
-0.1539269561694451
-0.19732820806659596
-0.4956155542772965
-0.1543913659655689
0.403232777448855
0.016097323996081613
-0.17853675996736681
0.39577053642653204
-0.05304555028728645
0.03374617656992659
0.29140102275301694
-0.04473128438146323
-0.20305139335009112
-0.073302335107295
0.2681247790599611
0.044220929475281626
0.1824858629928867
-0.12557764289358908
-0.06443615084850517
0.40359383051001574
0.1786029328933156
-0.022001737137158563
0.010925051890493354
0.5046125568655526
-0.5959857060089206
0.008159775428378913
-0.10107550823769294
-0.1693543393594083
0.026336865924933995
-0.13203507625092534
0.08019869625649126
0.19155756112617678
-0.18723853084148306
0.3434041520449291
-0.4260894449804623
0.20667396189360165
0.20554058708531842
-0.4620800595917857
0.254095538903578
0.27222453964507
-0.11181868776325728
-0.377055268140819
-0.6288643930779105
-0.527715549275875
-0.6247180556158942
-0.15597852974177082
0.13922688445327963
0.03084499619867673
-0.7992753737718163
0.42665223259011115
-0.2501234016214971
-0.16008831172203394
0.4235847058954745
0.244440673178254
-0.23829133507272343
-0.12486553123362004
-0.1691386603789647
-0.6423958481391953
-0.02210121960068687
-0.04326606667862007
-0.49598366617458944
-0.6009967547662342
0.3203392711181305
0.13503139534658876
0.26733826519206
0.2573046582668435
0.1671773426715317
-0.26821694848396077
-0.5962134098041943
-0.536358435741128
-0.05793080319269685
0.12585781074678531
-0.014403086526352011
0.13671093857483435
0.2456575763280593
0.13897583012016626
0.3084888916476523
0.08446834144069147
-0.04122716103455791
0.10209729672724105
0.45054265190916826
-0.24666825154577623
-0.15664972281637263
-0.14338835106155362
-0.007769866480566084
0.3771530210488699
-0.49768421367264426
-0.6485422934202
-0.03897645200346737
-0.4376054861170715
0.5086168349304361
-0.7472472431989284
0.07422477761794882
0.4005815374636831
-0.5262196879034186
0.12180264053074015
-0.03774177994014622
-0.3100486468071837
0.11383404254080406
0.4815249481522317
0.06533015767986951
0.24907788744611112
-0.1987630804073264
-0.1997980822676713
0.22631818849442062
0.003315312252063149
-0.06125063789876551
-0.0401599634023941
-0.28831920534380817
-0.34542041162618237
-0.20047317834939335
-0.22415422714725208
-0.13799026826782682
0.15439308987899736
0.2834896668230452
0.2897748255386511
0.32433393502343133
0.2342271353242396
-0.14278405348881917
-0.4495472807341908
0.5363576057830504
0.1669045798167362
0.11102361766507444
0.2264827176726117
0.1224856713656698
0.11161443366462645
0.358358833232465
0.17266384600076112
0.19808777142928913
0.9699648111629772
0.040090671272819685
0.18524747389892368
0.04058480574543013
0.0507018553769907
0.3582083603294279
0.14638315838634758
0.3327761426519692
0.12579373121302628
0.3133790994197859
0.2724376136932161
0.06357719319668412
-0.2216661711285076
-0.020900400991276956
0.1386876270125634
-0.043216112532046824
0.063025888429775
-0.22507762304563816
0.2713290853202754
-0.10321056620188938
-0.03542894372757395
0.23914171527418665
0.045957617139019226
-0.5050516949834558
0.21201516986564112
0.02568946314166778
-0.12300757462528192
-0.04509572642815514
-0.37034435208430694
0.0526009851835454
-0.529992416169505
-0.15972572678095312
-0.846106157856861
0.1022720339412345
-0.004425776187757725
-0.19431669496166004
0.09221000167511077
0.13580850881086043
0.014392980503266053
0.359943426001703
0.3075824903000186
-0.19711342585359998
0.1632947961648148
-0.41291349158101226
0.32314108071623243
0.3186965547879471
0.04591819463033717
0.2917534747847856
0.1917145781366937
-0.3040608372500281
-0.47839774860162376
-0.489156337206871
-0.3432333196206897
0.5066142636057237
-0.3734700252297522
0.157899544884065
-0.4494021809554058
-0.7998570751132238
-0.09423281128770812
-0.28416475035682653
-0.5441251532890101
0.10438126190764321
0.11714343445805217
-0.1439116457940119
-0.02730731678958935
-0.525014949437098
-0.17113674861699268
0.1697614247390532
0.44410564256060187
0.07258854108718134
-0.01523485260500743
0.12270333874918378
0.43537186684450097
0.2901015353046528
-0.38746212159990434
-0.15590859510377858
-0.5283971898828147
0.03616152165249977
-0.2745125991705984
-0.08545277156665147
0.2765524638414048
0.3029880458225229
-0.3230379282335323
-0.14545278224993552
-0.2694623771781884
0.35346987919963835
0.44839230585750134
-0.045589017618077696
0.060623282067432324
0.284421440455885
-0.07269984773232212
0.47435323117880673
0.3017025930623398
0.044566028264789274
0.374743151651786
-0.5010280677928589
0.0624448180568783
0.15483559801784993
0.5096299064926121
-0.17867390162609842
-0.1654764710651392
0.04838813964050146
0.2452319165944143
0.3328458773119536
-0.2008756446702868
-0.31606017519845875
-0.38553590455285025
-0.28263370391236936
0.11366576384733162
0.26793112206041736
0.3916253197474368
-0.08541001442133271
-0.28901046493332483
0.3718193229057779
0.4599108243735657
0.1078837565613744
-0.11520669914625732
0.13740663831044614
0.05209958460363868
0.10760468092520281
0.25815584993261975
-0.21598586330258063
-0.23048682870370024
-0.43605876147411726
-0.1593737575703447
-0.49747242101699457
-0.06320684614469835
0.24642106583832876
-0.1788897181539061
-0.45671713545558357
-0.18847460889354492
0.15016228034189383
0.46667213057025086
0.20417388250755752
-0.4374447860817223
-0.198559459868227
-0.16591156041629607
-0.013124813097568307
-0.06077472973634449
0.772199965650722
0.007904670254758092
0.28191255886724864
-0.14865999016474998
0.5396992427351612
-0.06950450880098515
0.35101120292712223
0.3858569985353018
-0.812107405414372
0.8909771147232771
0.28359541257235893
-0.013366993764671063
-0.30747150217531294
-0.38650871863752556
0.44990184071244704
0.14637845005777148
0.032024149696678314
0.04735698753386556
0.12296247876321549
-0.04362324555088845
-0.09811615663627281
0.054523229704642635
-0.2014997192052254
0.6593782194897962
-0.07812727768956068
-0.12172929691984485
-0.47587517885896435
0.3061695638456164
-0.06457195980110071
-0.49889605505445994
0.23329031822287133
0.20505229127485744
-0.5662233775955856
0.1098301348785612
-0.02897575228696725
-0.14271448883536936
0.2992584669535663
-0.03390665022785026
0.5734043716214317
0.12301611627852399
-0.2728437105852735
-0.02289743133312102
-0.4526713185070906
0.19517315925496923
-0.02220787198402183
-0.616807871278885
-0.3559407445253788
-0.02664562590726359
0.3630024567132313
0.13250295392577557
0.0935218668555116
-0.059929780600843766
0.2530495791619323
-0.47551163532116786
-0.5352836845435975
-0.024694586021743046
0.13855792244858373
-0.015789819549253015
-0.5664642105186609
-0.2804377874017279
-0.4345793467532171
0.09680149779192095
-0.04257546499137132
-0.49024171101778974
-0.04548440657595247
-0.07302639057956405
-0.13566625906084062
-0.24117619482841263
-0.06731270726621114
-0.024708174925321184
-0.09454039561422695
0.27496142227640524
0.2477129715873477
-0.13717178180298606
-0.1887319762096374
-0.11138397546214572
-0.5753552477474175
-0.13184862155530333
-0.285617794459919
-0.049138106046646764
-0.06717640387019533
-0.0830127149953715
-0.2603917175268908
-0.41017913631118347
0.1277650540234158
-0.10698271165409358
-0.6478058683801234
0.09791706008403432
-0.3076864220783866
-0.46683219259562925
-0.06955850149365028
-0.16078290648681043
-0.10063446389883153
-0.0026115206572979712
-0.08786691079795911
-0.5158086106499854
0.18929884060091182
-0.5315787719406461
0.33558158810198263
-0.5976840807017562
-0.03584220806517735
0.2054240495663122
0.19367539119610117
-0.42598300861340616
-0.2671248540233713
0.052764197883231986
0.2854914921312311
-0.12197556497003924
0.2332985728236158
-0.12225792397287535
0.19380257171037996
-0.16360544406096672
-0.3576055136604153
-0.05039692668761701
0.3010140984112045
0.26749669704497087
-0.16548988950440174
-0.4178843455486081
0.3896149633246276
0.3356102145007434
0.23858790160315949
-0.24910174989478484
0.21500392006194693
0.08618136766200542
-0.29277036992535005
-0.30058587235992096
-0.12487485880815485
-0.3839720521866904
-0.49916226756993076
0.08709753451797311
-0.06651804690856486
0.10364171172489611
-0.20845857708015766
0.48876168982042095
0.235922516886741
-0.16498248598942628
0.4307185547538105
-0.31575964672796547
0.06138386981977689
-0.16630177303302407
-0.18093820603852492
0.15600009465069428
-0.8958893085936828
-0.21179529555255186
-0.22939958514982758
-0.15529511783265515
0.1104043570157969
0.007894932298938478
0.18347353578967174
-0.4442346472423057
-0.3317312977960847
-0.6465023485908703
-0.04507519910838117
0.07353130560555032
0.3962883441905694
0.003744559507802326
-0.25059601972940854
-0.12441870881327277
0.06471480944539093
-0.23201941210095944
0.003616425477972425
-0.24654701005310134
0.2825003157001028
-0.002840789080367456
-0.07783773529269612
0.00864472279399462
-0.22012646127632252
-0.20502226326353215
0.5358824601244724
0.6047447246312696
-0.0582460106880892
-0.6906543912992145
-0.036887548061513994
0.19921942009314403
0.11581198920799682
-0.17683673112521545
0.5369515033702074
-0.5908855354336903
0.38312392686479096
-0.031146578092096956
-0.013942529188672594
0.047709817457657094
-0.6397795177548173
0.518929167042803
-0.04432949112937133
0.6062116646756812
0.19004170415284316
-0.4968149985179549
-0.4129763206619571
-0.2641205722705418
0.18125510798008063
-0.041104269736976076
0.08531470682182526
-0.013903538769160017
0.5229177185403279
-0.12858375009240391
0.013344717051021504
0.14153237382709458
0.24133479026872373
0.5007044517772611
0.4689228436963057
0.22664563371882046
0.03409414532511985
0.061175978011835844
-0.30672596629440546
0.09969693638932046
-0.013931059315380336
-0.07769257364347833
-0.3067316584069216
-0.18179999168032757
0.1521326600163477
-0.1698242661328851
-0.10377162401866487
0.27738464124506373
0.43656194726737246
-0.10133357214858336
-0.20648239090467757
-0.10334566697442595
-0.134337134499688
-0.12511550334885788
-0.4358470813034922
-0.052602873715948115
-0.00043236638516010943
0.13422776315415147
0.18802142495717544
0.20630579469709934
0.19862946712804203
0.11269469105326375
-0.22223293218501203
-0.24272636580330764
0.14722119114161974
-0.06626825997433249
0.09163526192025039
-0.4072984234115553
-0.17743326575354654
-0.27979161558503607
-0.03399986488756248
0.042906247803061535
0.13416810536324264
-0.04920261874084871
-0.20965072674591353
-0.7702918658432502
-0.37621007095349823
0.36104460139849404
0.2388486486192522
0.4711520487644916
0.08734817534585532
-0.26851494421974226
-0.20169166259275997
-0.08600436381643581
0.14793442451661426
-0.1589326916889479
-0.21072687175831017
0.019542583360096955
0.0568793552268489
0.2178025820239088
0.2464532022136157
-0.03919131852250377
-0.26825285883078237
-0.275524086038641
-0.030843260634288414
0.007850181346707017
0.33227390438066257
-0.11836003196504956
0.24828400824972902
0.03499427327791757
-0.45062409511531076
-0.11808506724522339
-0.21600254190963722
0.023975867868541986
0.24379183385678657
0.03610303579961141
0.4680454883339405
0.06028729336817171
0.5463433586081292
-0.0013360307668462794
-0.021299633801512754
0.0044777345409010285
0.2457414555367105
-0.2322730139050519
0.02810454864501094
0.12051735628698051
0.7112172949390452
0.10043496872305362
0.17142095857271192
0.04917937887716037
0.32703405191372
0.044594873658903474
0.14698179260018965
-0.08759263887500646
0.05109355813684121
-0.4207002724368074
0.34986896802141965
0.8164502734308429
0.40435782202258586
0.523319414826332
-0.0045164242647315524
-0.09618097175580133
-0.1734394021783193
0.22255535577500254
0.06835936008453125
0.005739412373502786
-0.15766944860299556
-0.07064247088043114
-0.012284342321925882
-0.17422306936597834
-0.04126346749534953
-0.6402740522921768
-0.010558932595772622
0.022015385250425765
-0.24453277106221416
-0.31775503975502184
0.07515380191663348
-0.04586383144186327
0.03175788974864759
-0.25971899726680187
-0.060650262540417145
-0.4569434480017319
-0.4205621917986298
-0.5407634853096485
0.346878213543031
0.29161960563678363
-0.18073071316168796
-0.581034722532083
0.11441516262590923
-0.17980958667103522
-0.2068011582287161
0.021588975503020306
0.4803137287415694
0.6588832804912901
0.12117631129163998
-0.5343245980168793
-0.06459042431140558
-0.2671990705105241
0.07594831987469974
0.09301187660023248
-0.18506925257188395
0.49625569156316
-0.1325604131449739
0.982749666231013
-0.6448913335314769
0.05642572448762058
-0.34349088179175463
-0.7354803215271484
0.505301172525742
0.003710668318705289
0.005524031291675972
0.05001403221522636
0.3317683687547919
0.29423995696452754
-0.510096531765215
-0.34843713587681086
0.025098858741598222
0.4189134951738918
0.016306190535018687
-0.03666175498585535
-0.03872088577882921
-0.0863294274887104
-0.5275016173612771
0.38292913997163824
-0.2278009923903201
0.410127980595008
0.15935599338191653
0.2583971275360341
0.01088651138116435
0.2772979631586729
0.22310161151806887
-0.046707502135700296
0.19702244451321277
0.0025292481938268916
0.30183800268152855
-0.3676308947596882
0.28199919093065734
0.07087826523687754
0.2762548594047641
-0.10814067712290085
-0.17153328882310148
-0.3380389701280061
-0.07010168888698297
-0.0009227280707485189
-0.09543408779528653
-0.2831608538265167
0.16857875354257879
-0.4896041785854574
-0.10821641372086496
-0.23028103118892929
-0.07291251849973611
0.9559904486980005
0.8937629628565701
-0.10019173047640012
0.02949658623513588
0.23653908736057358
0.0461626028316781
-0.4804533953404772
-0.16191157796017724
-0.41406883537831835
-0.20816289896840365
0.42278696710157687
0.04145254335468701
-0.282281853591632
0.02038852769197854
-0.11324343796070001
0.2661245527188805
0.5405574863097107
-0.028713268970641175
0.11397961198612855
0.17110128326500237
-0.08578078859618046
-0.03633348253263395
-0.6240749535152529
0.4516095488188003
-0.19444886619721868
0.16038416743072562
-0.12893722536383637
-0.2047168692973882
-0.08155689562167416
0.09346425105406332
-0.17253377612328993
-0.5942001394279443
0.3402404608838586
0.324828138028269
-0.46377858128929744
-0.02694933786503305
-0.22529378210809195
0.08221315005537312
0.037809040416768774
0.07825793173189412
0.12967906303254248
0.06338839422535136
0.23558674299085303
-0.3720535799263786
-0.511961679472243
0.30355906242515673
0.10273688012235122
0.3358195241805924
0.2983392462696241
-1.0079118824715463
-0.1562360458812963
-0.18765027092299602
-0.48118855173382147
-0.08268350071907381
-0.002629893135377467
-0.42745653248130416
-0.3450571598950993
0.12112385899254642
0.11138809279028757
0.08962435419229796
-0.004859784627226835
-0.21857111364337437
-0.4288342209678139
-0.029081820717950596
-0.22478031031128423
-0.1311295360248598
-0.22014450133929422
0.22501161669269712
-0.3618621483980865
0.40303911601671744
0.15328549908815714
-0.27787998167162237
0.09938535998550355
-0.21837909634641078
-0.08674401157128142
0.2510712726419094
-0.06910974653809704
-0.23764327776321617
-0.18291059721693465
-0.012223262433726553
0.12691349699373716
-0.1398325012101246
0.522412725753609
0.10458243664530621
0.055641341151177436
-0.5904469801633424
-0.05902725612765019
-0.02693127318855451
-0.08769645502614538
-0.621353362988276
-0.15870094028342213
-0.12822075112100279
0.007061599118579031
-0.16904944926622636
0.06571962427668242
-0.506724942161365
-0.10994523149990287
-0.009717859752843366
-0.3617933775714945
0.010103242731336656
0.6417627779623023
0.53190310180612
-0.41108002817914496
0.4115772206410102
0.01426773910991707
0.2669379036480822
0.010603625844119124
0.06908500708358765
0.058496981843974845
-0.2876356633101094
-0.4094445881739812
0.11700250827706309
-0.6684449958161065
0.3459559414972045
-0.012084408828633347
-0.07574586072593248
-0.2179813641418691
0.1168188796574266
-0.4685648992374834
0.09896271836953456
-0.14565728070774273
0.40154231729909484
-0.18899446673341322
0.10812009648239176
0.11424090579604257
-0.10714518448261395
-0.058447738927648304
0.009794592712100456
-0.16264340925197507
-0.13369485544845944
-0.008637688683623275
0.15659622260194658
0.0913985058886102
0.04359779475081623
-0.09227949153820929
-0.5374628513737518
-0.007469229393536635
-0.49703799361725404
-0.42588443652635805
-0.05592777287502705
0.20393222457371976
-0.20933234958219016
-0.5936447268608409
0.19147166097904791
0.01289976690933686
0.33475512875038016
0.17021559817538814
0.022769941853146704
0.1453146563888378
0.047213292143532065
-0.1759585724358666
0.468238179952537
-0.24219582750326846
-0.12051410205396182
-0.2256235018405901
0.22980375581938606
0.40827553046939813
0.795929183196483
0.3280654372486758
0.18411504389927225
0.07218726301418457
-0.06630208803638137
-0.0774949111550064
-0.15398189975187554
0.11868530582084132
-0.15375892303016694
0.8449561302845323
0.517091202732976
0.5793314764816776
0.770163230736689
-0.7280152104283526
0.15178699150636896
-0.09956137134410133
-0.0874612524004059
-0.5549176993515618
0.3663337715208429
-0.1589428713531579
0.3262733586717876
-0.11645324859883549
0.38775432501216106
0.10443268051180832
0.6344789527715803
0.44932748967692515
-0.5709421958617955
-0.20863924045295854
-0.23102306133225792
0.08364637159073882
-0.12492584524161432
0.12245179788755793
-0.1396228757167624
0.08002954508677547
-0.0037844587952590384
-0.2739731443953974
-0.04102834073355149
-0.235445946707153
-0.17317484845385728
0.2602110316855432
0.6155964681050661
-0.17431213281661234
0.3360736495015141
0.1481111306043805
0.3930293954096663
-0.3378913312444775
0.11027175613000452
-0.3649678229290198
-0.2507095478257675
-0.031977115884239606
0.13119230597037831
0.5065080365149374
-0.15765878589160834
-0.28798815325867727
0.04189471924921967
-0.17378320954559093
-0.0004003361986721501
-0.24301021877512047
0.17263574012638033
0.19141674660870955
0.030228700360869915
0.1950955247326484
0.3240294002777995
-0.5804910918081091
0.19561054759813884
0.8248718488875864
-0.35538846159677767
0.012135604692235591
-0.031011993894263137
0.03814069058582201
-0.14825415308633214
-0.21074493160411434
-0.34751244359877376
-0.38649654683769574
0.5989042956387831
0.23014776238357268
0.012003103443714002
-0.019212494965345106
0.24111504842269513
0.0018110863556667612
0.24731648719117375
-0.01071738130037438
0.025720042157199908
-0.1781122122046216
-0.13623756282967908
-0.025158567505548908
-0.4450305171338198
-0.14784579963293873
-0.08732704267280983
-0.21467163969400802
-0.2874217018248278
-0.49652026599885374
0.28716464231347194
-0.4255633155014933
0.017203682886022503
-0.0032708189033550834
-0.6426940237195391
0.03562286239907141
-0.38204804295115585
0.3698871840179088
-0.11730391875172697
0.0817626406952175
0.29761545962487596
0.0065622691543783754
0.15084828999452
0.38803637472363905
0.3503582455696018
-0.6275625632707486
-0.25564384813715424
0.4072433399926157
-0.064164048400476
0.7405680796406378
0.6595163931040092
0.46503970295567476
0.22747658496470258
-0.24154652957609343
0.1949354560311436
0.6268488294193579
0.16855682857232243
0.23587889447415478
-0.13871940558748438
0.1753653104316862
-0.2126331413778785
0.14600733461370535
-0.0450412641828184
-0.4160036859068925
-0.19271901240537814
0.3423732328088408
-0.43106867794595183
0.02162115466895977
-0.24801522196378623
-0.37791188993354446
-0.6844608584431067
0.42402367059812773
0.07828330080251059
0.16450199193521062
-0.45605412503235415
0.0625951460292241
-0.09371024710960776
-0.5034458293375549
-0.005366826563877448
0.1232681670948068
0.061856747627407074
0.8739230772879512
-0.38623311551771156
0.42731852949941057
0.03454867357702176
0.4618868278898312
-0.38803448791684403
0.6652534191690453
-0.02739903690325671
0.5064193868204603
0.11633410834042004
0.6152649986452787
0.08578222564535223
-0.739841520149044
0.1994349017307856
-0.09416150527439048
0.5022370457053736
0.0466076875411216
-0.1233314963317134
0.4035022393543467
-0.17224015748067764
0.37015915219330137
0.011555306244834924
0.0735110520086314
-0.24385411769045973
-0.3276276661356302
-0.2364959034627332
0.020759664288023217
0.25339116658604305
0.06893736277444774
0.18705468109301338
-0.23663698989955506
0.13180079936296735
0.1903897121561351
0.2912291718250879
0.15948964262758147
-0.48085983133173393
-0.20700235335852346
-0.6075424899673854
0.028469704997977
0.24539865919769255
0.3456677502287708
0.004665543508205516
-0.03411276239234357
-0.1580698630246076
-0.2045909316838462
0.38790444503660815
-0.48638260816262824
-0.04178449147377386
0.46566133568888635
0.41025807221591415
-0.33837289135447224
-0.3345951041732044
0.21874588430383382
0.3638950359731939
0.30726823437737294
0.20164809924177057
-0.03214983271929764
-0.15624808772869636
0.6620521621669778
0.100806901838217
-0.20384043879621455
0.5490514989761328
0.6282046226403244
0.5659713142851212
0.7304855084169944
0.33506030815029736
0.20465080076732764
0.014506040464490493
0.22740270956103759
0.6127065257210397
0.1323650547697383
0.30977422722236875
0.2780910233112498
0.7473639188008956
-0.11609368433568025
0.2521921386954801
-0.22936303892609933
-0.12158470584664907
-0.037427705018603374
-0.3611415276750056
-0.3932987434644113
0.17821055269951747
-0.5678572261211982
-0.23708772297506944
-0.38581565071995666
0.10016714856002062
0.08324345660191344
0.10365286072789683
0.008612611553243072
-0.034009359726043846
-0.7509805956273405
-0.09004013538183094
-0.15413876949960914
0.26805448061451465
0.9065290758058877
0.6982077541788523
-0.35809097147153796
0.21791030121692673
-0.40198570136193484
0.04303006161631699
0.2842799256844967
-0.308445434715136
-0.18325187064378676
0.2929059120224917
-0.4573768604041276
0.43591149592019757
-0.0023468786516762197
0.2524426876400143
-0.0742777371048713
0.2893425606408501
-0.03558193010581408
-0.5059870757185102
-0.34970354672599824
0.0780700701115534
-0.03423749301500077
-0.08991532127978995
-0.47281883450471063
-0.3180285509468347
-0.12202355689055273
0.40311696681258213
0.39719380992764725
-0.13930217781643317
-0.09350948126268847
0.3045874446512895
0.2541688560674528
0.21241837993180498
0.08281450900596456
-0.07004762299013799
0.19192314775616037
0.00878060875452969
-0.18704667827617105
-0.33725261464476436
-0.21748986922551686
0.1560932713364566
-0.050779854693088614
-0.03602006702772873
0.47140622642299873
0.06567286353486038
0.028863710788386
-0.4695383728739112
0.16469996722717511
0.08747720284526037
0.0297359218379712
0.06685962885043942
0.17981907591946136
0.1818646988222398
-0.4901056798970899
-0.19995854684070394
0.6432003619819686
0.7349566279284562
0.052442115701046677
0.024427279454131763
-0.31374979503790323
-0.4225080265082168
-0.15416519464666495
0.1434835868260835
-0.06395653814486325
0.022486862326714225
0.13089867528113083
-0.550047731957582
-0.11721108365232062
0.20051391630834062
0.35253616707431645
0.3573256877163116
0.18808813275977582
0.9000364802897196
0.07143988772416845
0.18403570575542325
0.12731210375547405
0.14197125025977583
0.0017308269494215453
-0.09115169042657471
-0.38901149410770014
0.35745331714368517
0.09283666804246901
-0.3376847111735706
-0.2858729032986284
-0.4057860847348242
-0.04707996220454436
-0.1404793815952135
-0.2901294545068301
-0.4784875395208988
-0.3645539733263907
-0.29799820991229853
-0.14617641011825264
0.05967287540717425
-0.10640788569015144
-0.14675706810052844
0.051299374985328994
-0.04799781364826029
0.07259430810127646
-0.03185046817110069
0.3634665250266652
-0.0421075057620401
0.5842318980211151
0.43994816075108556
-0.43414265833588245
0.35980401874868034
0.04626372937029152
0.23266308939226013
0.1236782023552026
-0.3418213140962437
-0.8284362263141977
0.3583147993818106
0.14936192905681617
0.23578236600379734
-0.3617232248064675
-0.6290683313409047
-0.18619602862102871
-0.4906444598740317
0.26476893491636205
-0.02209843693281212
0.6212747801588612
0.22601994857861554
-0.30906027820378645
-0.340550804972455
-0.016522627907314923
-0.19090347093628612
0.23321702343331366
-0.00619126831167782
-0.33367364024252355
-0.15443949079418226
0.030466691000940453
0.17196373119359554
0.2209563275343677
0.2392867791833732
-0.5788358902413308
-0.15742692190789323
-0.11159246218722797
0.31192720010111014
0.4655527076935402
0.23073587335454235
0.05754590027366171
0.5292605467947815
-0.08986338893534808
0.5312701976230807
-0.061165782016989995
-0.18558640655187855
-0.1316595329748836
0.7468981771514097
-0.2305172274718043
0.669009741629721
-0.5329734978952912
0.2834625546747363
-0.07889950285334558
0.0570537202155437
-0.08501602250512798
0.42913972504101566
-0.36818349892625957
0.3616182619637686
0.17307567147228442
0.14935299944238503
0.3078860905537923
-0.01621523392687224
-0.00208477728352462
-0.27547884629501435
0.001484281272080837
0.6604710492047756
0.8758986445267992
0.30564348130405417
-0.14397843953216824
-0.10172689460737235
0.22109515065344737
-0.29694171037911926
0.5236642535482713
-0.43296739039752974
0.18117148924152904
-0.022771918403612413
0.08479303981647343
-0.16054674838399763
0.3340804333844512
-0.10047493301622085
-0.11489828284950174
-0.22972476367720646
-0.05591987964292488
0.3416790575369199
0.08111587860176708
-0.1700689463777004
-0.3884964185319311
0.10188821274445505
-0.19561975973695048
0.4926113305913141
-0.004461945712456065
-0.39771892458957897
-0.5119444184056757
-0.10609242982810295
0.18084175169057487
-0.20584577153759942
0.29281356740281217
-0.12892370986149068
-0.4701293193519898
-0.596825841992337
-0.28970734056011427
-0.3266277612924777
-0.2167142363415595
-0.22612640580673993
0.0707270613053822
0.08147638298498788
-0.43097435375576804
-0.715643824556911
-0.27136810352386026
0.32640602406482916
-0.5920091507257116
-0.5048533721303768
0.2823978216137577
0.22562139381782625
0.24070541383590033
-0.058525867483588026
0.1828447524822087
-0.026991450302207287
0.006348475222481578
-0.08763637837164866
0.4034109367659431
0.20048049752607103
-0.05998222022358004
0.10245276805611593
-0.07763518718887163
0.31474331875277106
-0.06244061739598633
-0.01316440874609895
-0.3326041602379042
0.5924918476494746
0.024459873901502713
-0.47061615506996707
0.02356676001914469
0.3461471539246484
0.09500938175307404
0.2416192100475436
-0.08102904928507637
0.07625558949463149
-0.7542671661895995
-0.1151308153634927
0.24223028449864936
-0.1749766712798534
0.425629964700834
-0.04353332295558374
0.36217970649451986
-0.03554620135249531
0.115119046144866
0.05322241683411162
0.17110167016609898
-0.03950136259156578
0.8040250629904322
0.008013654764114381
0.1921666564223572
0.18970829031309985
-0.031169351925013977
-0.018619667214651255
0.07924224605651342
0.058324577558218446
0.4482415599105901
-0.4676862103717478
-0.029156280225288645
0.07888267911828586
-0.26465026411697185
0.027583606039536617
0.6033822080807879
-0.0417593334431179
0.11477715850416559
0.18316900614185155
0.17703901914646278
0.052473511542142276
-0.35852139656231796
0.08562247909201401
0.021959010060348023
-0.05880584207884107
0.2865634832377581
0.3957248608220926
-0.08069330701207932
-0.18229559745249985
-0.6316773611228717
-0.1255831154124071
-0.025680717315613708
0.18305336778551803
-0.3797619187864465
-0.32677619569165517
0.003678601075514116
-0.10861945992140792
-0.10040834730651242
0.6734262302961704
-0.14003662770620556
0.1892773388904288
0.18122460540504867
0.03165392453773397
-0.21909336242122474
-0.17253746065260728
0.5695284224348317
0.1333928393968931
-0.025512095079296214
-0.036234827114382605
-0.7023992107396845
-0.3246044328836851
-0.14737963367516638
0.052777756125982886
-0.34177949665270074
0.34543555850513985
0.020213508240074507
0.27489560489168546
-0.09488241051415379
0.18653883685045972
0.1779591394198136
0.19650397708588538
0.2926209435521599
0.515766864399978
0.09690097500149766
0.23186524638827796
-0.4110698840909916
0.232907580371734
0.3472553959250914
-0.37685475562068005
0.0867627763118019
0.039246649670755834
0.43221122021093017
0.041938153090576254
0.2852103750717542
0.08424742958219766
-0.03671809382110444
-0.1969997658684347
0.08548914958045514
-0.362616136335262
-0.001070308132244167
-0.08216710366171703
0.12958958076259428
-0.15069702149776207
0.36458308306762505
0.07601974288587644
0.021343626708235416
0.05710495499255207
-0.12432709209251241
0.09433079958082181
0.1720398828410136
-0.26445898610349083
-0.04347088216949173
0.3813968766048707
-0.1712650275840385
-0.002315556393499119
0.051793270973598336
-0.02572007516138331
-0.11170041369815867
0.15974685329955776
0.07638631900971773
0.03402267755494865
-0.8138930290702387
0.10805036267079353
-0.81860289534065
-0.33146605340513907
-0.14479201038887898
-0.16391272025418963
-0.17486161327212615
0.2800136449497706
0.23033077780959976
-0.1343431253034429
0.01309650299319426
0.06469327776433319
0.5802233309933483
-0.13123070963146574
-0.16015211100911209
0.15455713319259837
-0.18256003599623374
-0.12829453002762878
0.2339613482030582
0.2864563469678727
-0.02305921523484441
-0.03840121499614991
-0.16865860239116845
-0.14371199351445738
-0.2197241964355614
-0.12603035867022747
0.19788066693313067
-0.2243122745296348
-0.14298578491157515
-0.13942425648956555
0.07451833042396865
-0.3173504506207287
0.07369543272449917
-0.22005205236347508
-0.18302714802457595
0.3221240397437872
0.27114875158464585
-0.25621405573051387
0.03536493521693211
0.08307773316707266
0.5568009168012192
-0.12099962823074832
0.013872872590128295
-0.07872418017790889
-0.30824470584265706
0.016522855732986445
0.11268918111407097
0.17109203008880605
0.17880888969005723
-0.22587426979829897
0.14594430613579956
0.22276561401607767
-0.3444112615190721
-0.16298061263935146
-0.08571339326082202
-0.12314912562163863
-0.2005257652006872
-0.10260130901684318
0.04034332222046779
-0.07655897828744164
-0.19184353047391955
0.09034174228773019
-0.16868125792946345
-0.4534542713320762
-0.25115140891687576
0.17586499548192047
0.20208821220231235
-0.02914624973096004
0.39392311088268084
0.4741959200335863
0.11510655485984032
-0.14722153979592537
0.45463365712035775
0.3318511018790857
0.014048903906534895
0.410406120611462
-0.1334067458283285
0.3550081717921371
-0.04147385024061923
0.3094903551278416
-0.2782415280357095
0.09458127774275404
0.17385123383531983
-0.09669181901498818
-0.003218138665982578
-0.09180347646182888
-0.03363904617602371
0.2972598179684984
0.17964918818458472
0.5256024624496713
-0.17557525480446606
0.2769132600660651
0.04071051414392026
-0.09321272697000872
0.06975477723874425
-0.04125544224924896
-0.09984655200622902
-0.24093395999450465
-0.6391914975199879
0.034856006785320276
0.3186082388881416
0.29799256867268586
-0.13430185543605583
-0.3739053649852329
-0.36031569458441653
-0.4842347774588447
-0.16330797717751208
0.8793550474016352
0.5959414044232896
0.012912347230514317
-0.48488944266098183
0.4429666952615348
0.4652608478668208
0.6898602420941183
-0.23938954298463855
-0.15852438355946927
0.413770079832468
-0.07232893412288516
-0.41574597551894427
0.1298855828885545
0.6959553730086622
-0.011784979806252068
0.4961196368431562
0.4851259573603284
-0.11810754167553444
0.1720553480843115
0.30024307011604773
0.13530056280226938
0.4013976050354207
0.0774523174549394
-0.49356948093017194
-0.18255881617046704
0.28506318758993615
-0.036002835085089946
0.08338290891606139
-0.06320536411763752
0.10387588829917994
0.1432246242431995
0.20686883584201327
-0.13415731233320938
-0.03586991198012357
-0.4367195170591856
-0.3765686800543769
-0.49223171209512684
-0.33225255098146134
-0.04125798241048227
-0.44722593964334456
-0.3036617884237341
0.21902642295794958
0.11446541744914872
-0.059964441402420035
-0.18517093819690555
-0.15335651851738893
0.05623714678589682
0.17798282878718213
0.048088307297866964
-0.4267867237210603
0.10803734565648732
-0.01391101937082964
0.02506112510530078
0.1007835479249002
0.18849850887574693
0.0028365937319587225
0.39211223676199375
-0.10419579063687559
-0.3013053373944279
0.023384114703623112
-0.0523083727419795
0.10446004741410916
-0.009298221677386241
-0.4881010124639896
-0.3035962093435753
0.15727394272319106
0.017040672953060745
0.12736218028532695
-0.175969072418605
0.25790631125571006
-0.43952921367811215
0.46263012362678907
-0.0008274080819087834
-0.32659312217007974
-0.7520332324782895
0.08822149737279776
-0.017776506960485685
0.23552701813214902
-0.1345346800448597
0.522488678689377
0.15900386453916768
0.4737222462972778
-0.10515834520238192
-0.053795310469775634
-0.3258918246402453
0.30504913914941356
0.11537654380438207
0.3278200025379381
0.09933042254385555
0.01919800682954162
-0.12548302072466433
0.43486644769082544
0.05775914892805976
0.34514488735131965
0.12207144868817268
-0.5058479699324608
-0.7117029458572871
-0.04424783263479071
0.268912597510811
-0.22554243080744504
0.09705854458482516
-0.4564252349728785
0.09887718426879384
-0.017466497929746142
0.09620977740232416
0.2616350318157636
0.12242823921244074
-0.2738215983799177
-0.05706641168648319
0.3418491678896297
-0.003246039924102693
0.0288639813300633
0.07040807644570692
-0.2157058985907433
-0.48723410526790584
0.5964013316684356
0.09061111953047636
0.26369589200178634
0.06908600292480564
-0.29151589976387177
-0.185798434483713
0.04599760967359178
-0.041339376317781736
0.09907968032661892
0.20573695225079944
0.1458629145854719
0.09880598136466845
0.039515522563121644
0.09332374911750774
-0.0388486270043972
-0.18088177301963804
-0.7663180613977106
-0.20002142998540692
-0.018104224558087904
0.2631358698931614
0.0087434783042791
0.34568305343778494
0.07377433221386064
0.4193855082806315
0.12240555390202455
-0.18603825296084361
-0.0465790522225353
-0.3522289877288245
0.058353844294139284
-0.20636313480663604
0.33458271780990145
-0.030206438984654645
-0.16909627864800658
0.029802919971718276
0.0847681776478031
0.15427303274303977
0.06212128740730701
-0.15802335805820544
0.051922634665843806
-0.7269538925769233
-0.3119195191621766
0.02260383354634564
0.3253276581203715
0.16217204920794143
-0.4118715982642044
-0.155637760987149
-0.0018260355347196643
0.012082806037531053
0.016808869686610203
0.0900031726543448
-0.4687509902796321
0.4257887245261672
-0.13424821495522082
0.08193389979749134
0.08905224122378386
-0.521364043102224
-0.2676308231254983
-0.4320659274210325
0.05213620432570997
-0.22302050894389447
0.3952566403033403
0.40635311161614407
-0.15135414355995902
-0.20210946854407277
0.47786260723879087
0.09614656079318795
0.16496374209813414
0.12138346969181886
0.1157879206574173
0.13695748710451794
0.4244870142088476
0.07959005982761613
0.0845001872621435
0.47984553453632306
0.21532314828428661
0.3737110309197941
0.08020321081212592
-0.008490565840771326
-0.1183797149992271
0.1498892305790687
0.006122211429884075
0.8834037365746725
0.25808704225741746
0.32181202545910276
-0.10969463804477829
0.3237663949731209
-0.09661920417624402
0.7008083671974119
0.3155102512187017
0.007366446676374392
0.43505257830086014
0.09684310338516809
0.28419032757296614
0.02284866133718423
-0.3714046965315059
-0.05259208143117831
-0.01817242270452808
0.10010787012139769
-0.020655700205571607
0.055098350892275515
0.18576821581001093
-0.13485126372305986
-0.3954561721939122
-0.08553177668547914
-0.6752657462842488
-0.33423453427119426
0.042803780958302895
-0.12630004873689443
-0.31850389138572144
-0.2769399140361114
-0.19527847359537853
-0.0965219904174294
-0.0845504350518662
-0.14564934463180287
-0.2970902367474815
-0.30383688933295766
-0.3123763436663644
0.05199703069840119
-0.004450968177575957
0.3338220107780111
-0.04201851995221217
-0.21635584228214977
-0.39495554732030685
-0.38922704611782716
-0.06502628571567902
0.14108637205341365
0.008747747964148076
-0.3419291551395746
0.13460429545022867
-0.00651310957425167
0.006619258416114368
-0.2604739772095451
0.04601359698256842
0.022045886931271456
-0.21393563852761013
-0.06916827676526016
-0.25862496713984073
-0.10537745280531344
-0.5212993432562443
-0.3682132134425303
0.18003574190775776
0.21703276614784583
0.13047230002488047
0.06098175668444404
0.03929217505025665
-0.18723303383409395
-0.09952992043966767
-0.1486384612458316
0.03354107938345759
-0.017815893774907336
0.003073137848568501
-0.01504478541138011
0.5518635161071161
-0.13646789026620865
-0.1120211754294283
0.45407801528400726
-0.1765965435281237
-0.28381234706008385
-0.04911625919673935
0.06949359294648098
-0.10612788499460243
0.19212166898946875
0.19891108017656173
0.07902876064511112
-0.04609237424911355
0.3187121178506678
-0.5248721450704821
0.2452206314669008
0.540388114124627
0.6311339370941277
0.9312359556832742
0.6922002462290169
0.018661661086402017
0.4841435667053275
0.3409423514802278
-0.20803536475042983
0.25969482314069914
0.064994376256852
0.0489241442926305
0.09497483625063881
0.26518593278451014
-0.05582680029821254
0.11545185598491771
0.02918949213694439
-0.08701346005138413
-0.062324578176101375
0.053328626923701
0.05420776432934352
0.34208760568001223
-0.051151432414660275
0.17725971791597805
-0.05166555230724535
-0.51171209767107
-0.27840419944869893
-0.5214204967945933
-0.30966739814493466
-0.005331584178247726
-0.35967557400113037
-0.6533046186546289
0.12941628105500722
0.1303842366641082
-0.07031192731738203
0.8978780252895773
-0.08602641475001585
-0.1775397370297386
-0.043890571718090424
0.38356310862518156
-0.2631150001680617
-0.03801530965713232
-0.20795159653154863
0.2729671816366395
0.01404832302704055
-0.6602218949912904
0.4922250690507785
0.03956208110716605
0.631224251283051
-0.1832099689232041
0.054270591700332244
-0.015767237785831476
0.30740794873424104
-0.08419991215445033
0.03923922397958532
-0.6234674108329418
0.4222104706548414
-0.04049123419839471
-0.5808488256781815
-0.30472536106901
0.21575301624028184
-0.5834444737759861
-0.4514402414765105
-0.02096850932278951
-0.6498633836356118
-0.45897235776763595
-0.10762151243825921
0.1217642567828031
-0.007289740546906363
0.2912680287138074
0.159269933852161
0.4350268566814421
0.3517096460069973
0.3039465259478906
0.1156162258585639
0.04874076289282264
0.37009274472116516
-0.0007548345976664881
-0.013254402616980096
0.3932232448777317
-0.31534240008639636
-0.5879089834513245
-0.01122180877767406
0.14193665641797173
-0.44698336200928396
0.17147068827365688
-0.3634162754982669
-0.19192851891496482
-0.3476159517413628
-0.07341558731068014
0.34431884035276683
0.15219587855440989
0.06387498787554484
0.04986802821229656
0.3579968296696484
0.05988438973951538
-0.05529918146134118
0.2257149019388268
0.5537576102891794
-0.4790577441985249
0.2818494173233438
-0.11235377144185203
0.3177930281157716
0.02673614685028906
-0.09992125784050816
-0.5701819154647291
-0.17298099250113338
-0.07240823472164341
-0.035589533270344254
-0.004440599932028478
-0.09324215417431922
0.21820383361696397
-0.05267420370013799
-0.039969271740268056
-0.012970239698550635
0.31011035271087617
-0.050292908471751434
-0.33680758211961975
0.38402708434270855
-0.028392220509899757
-0.0861778588580321
0.28270111778614454
0.019386575849453837
-0.03274627925139578
-0.10200604566107137
0.14457086907744116
0.21453627072389245
-0.1311637974197612
0.08336466152083032
0.192383244481831
-0.7979897126218768
-0.0936169530113534
-0.7735585485267434
-0.3405903314670613
-0.004942672197440535
-0.07278248936922846
0.11103859343051133
-0.027412014680961695
0.2993078724212228
-0.06125853365047991
0.33369189261308824
-0.06568723235237389
0.16227685516075793
0.22429694409474588
-0.4144779074256656
0.4397320989209622
0.633105992718376
-0.17378907264175572
-0.08487825521056244
0.03559554626672252
0.03012570542839885
0.08658530933164088
-0.2215217397787488
-0.0030589368507367154
-0.1971699235814
0.18499427572182148
0.16035976140194014
-0.3870866201574082
-0.020739307090921828
-0.4360292098691014
-0.2093167149493611
0.027897610960014904
-0.09450701888663461
-0.009750165039024943
0.1769851824092586
0.1236628829059229
-0.09765396342106425
-0.023128964139352916
0.00040418483187347346
-0.031577348789641135
0.06908823678172236
0.024871648459412442
-0.13679728645010242
0.25183445247025726
0.46914208651011263
0.4598497565826896
-0.2843879186600836
0.06819253069393313
0.03957402962963311
-0.32607308293988035
0.0007408881823842525
0.022229237742899963
-0.3412132660053363
-0.16724482725940198
-0.15718615140953007
0.36619422195000084
-0.17051796122740837
0.2611094411156976
-0.02897416138077075
-0.0822648838394363
-0.11041270525497625
-0.366306371989167
0.03839373268161487
0.1918462517047849
0.03366350754213959
-0.1985590690681967
0.46395546340297555
0.06796970050763956
0.20626559832690824
0.07512053542508249
-0.01679030335152869
-0.35005833864221036
0.3685208840853312
-0.040990692452273936
0.36842773328253453
-0.0300213727982641
-0.3000437112812023
-0.3800040651509814
0.3608993139475064
-0.0643968224363961
0.3473245954023459
-0.14198207256030532
-0.12424803330765034
0.08580687863321558
0.3057112571088006
-0.006342445149646652
-0.5319727446443497
0.3196522450057347
0.21793679869698013
0.105551352883358
0.1063601978178863
-0.015133339009585037
-0.024408256439006525
-0.13580432650285376
-0.22463242320143129
0.0011091309638326875
0.27102135457291315
0.06690896213064174
0.3115497598702923
0.697922247089945
0.19072532897556085
0.17273199162373576
0.3136372840586156
0.046727287760958344
-0.04579685703560253
0.5163846035947112
0.5298582694015335
-0.023345079165762315
0.3686541458109081
0.5158246871874447
0.48868452953445873
0.0941896358888826
-0.2883679513302372
0.04481591575857289
-0.14532088578584032
-0.2720492939056742
0.28684303159327246
-0.17620449293737223
0.051093294618584494
-0.16551189418697856
0.20083363262182874
-0.788284019683141
0.15975008222902576
-0.1061019649649247
0.4164956861248849
-0.21175743768615155
-0.28703010449640326
0.1227310856390911
-0.20933362596015903
-0.5736995383092287
0.3928553819084617
0.1910958661057725
0.48763041020546594
-0.1657887921626748
-0.23623268141168172
-0.18185267577168673
-0.3481992030639064
-0.19728622472863713
-0.11261607367413626
-0.2404004340293856
-0.3009780074982071
-0.15641949737427527
-0.15380788196804573
0.3065384648385309
0.5011054284751895
-0.014671773034398141
-0.019438835203179967
0.03969239581625012
0.514624951577642
-0.2903550514365202
0.04455115958850229
0.05615098491834095
-0.4029630814633494
0.15764632967910375
-0.16803057920252887
0.6155556390708685
0.6455558663811011
0.283883525208293
-0.35757472951062935
0.43978382224224455
0.4238483952781336
0.7133498327130393
0.4203407520989329
0.6183403576368471
-0.45039373246164693
-0.15917800575439772
-0.8046058010564776
0.3046474292459546
0.14497507407701676
0.2750021353972777
0.2710057606991099
0.4336765116925357
0.014552451741909889
-0.5375007126825091
-0.362730461067586
0.07724666574629457
0.09347677178814322
-0.4896248269250533
-0.29151242813989064
-0.028586000889466768
-0.2602191097308324
-0.028509328809335106
-0.41073170770326745
0.009829704518643718
-0.23666803312348583
-0.1485182759484916
-0.8056988343723872
-0.4279882663065881
0.035226829358465564
-0.512108856524601
-0.0854570386759413
0.012159456844210386
-0.0374455950770296
0.08399168953962467
0.5131750338471333
0.016599198930157755
0.1801025141446827
0.08510690719984756
-0.09537235722846568
-0.15927273174928602
0.32849532317190216
-0.5408950511613585
0.2502760343033016
-0.03881888438793595
-0.07619960654498328
-0.20112674941642242
-0.44856528837216203
0.6243332052029511
0.11153262573635692
0.20182417035387365
0.3773680982995057
0.10507536625233128
-0.17659120020819852
-0.07172098878541469
0.29330938477121704
0.36844998271212037
-0.27221826418309053
-0.21634564794622047
0.5628411692224009
0.1167210602120597
0.18534191827872906
-0.12037094712993525
0.5979945211505536
0.1041087497336043
0.6734137494193491
0.11943239494778041
-0.04821859677544924
0.25371543797377055
0.32110288742498855
0.2814325508683162
-0.2514577220080718
0.24284087569951418
0.09190523264848059
0.2727190786735369
0.2653133675504834
-0.24619883488466965
0.07923055400945461
0.024040909809507526
0.1427047080813379
-0.4718119022498044
-0.19123947297668253
-0.19436384692458086
-0.21924455606562288
0.09787220201295933
0.038711388777696094
-0.002633047235665008
-0.23013422720737778
0.3864253482949436
0.535316264250058
0.10368090111834945
-0.01706869517440669
0.009058200831305947
-0.00735022886476129
-0.05119261544986837
0.14615365057057902
0.49506683674744345
0.21950382983464115
-0.3487987775421051
0.051641566980751175
0.179432415457173
-0.26452810772474333
-0.1614072011176099
0.14977906961155768
-0.23286952918022108
0.1866484214252788
-0.3634112959196651
-0.08727073402871799
0.030495536603907896
0.14065915178797544
0.0031380440619469653
0.02445975503713367
-0.14701843919211957
0.3089957336094497
0.422133114295042
-0.2641224232858912
-0.20641133960832359
0.49208477587587485
0.30261055786201335
-0.05181507670395017
-0.07885610048411244
-0.25100870898226835
0.015910944998633936
0.0987904011617678
0.5622898706435815
-0.5142812077172985
0.2916595481685229
0.013894306227359826
-0.5201543870711808
0.2227304627843315
0.03116110018635303
0.10271053014671694
-0.024995012142434155
-0.11987879637538314
0.1292605249420706
0.0030409556497948556
-0.13181204444394437
0.3038611337562367
0.04393594953216601
-0.010435331522767911
0.06965789845203973
0.1910099769933824
0.15998528916153457
0.24396698744850182
0.16834917935570073
-0.11624413952167711
-0.11000595330344622
0.20881009816442717
0.0822494604951764
-0.007579540098492877
-0.08782860058488498
0.02563913439562115
0.002357475720445738
-0.0477678373245424
-0.2632154919869317
0.251256921352859
0.32013242572121875
0.09396851580522798
0.18733078285681712
0.00146407864259885
0.2670120877420614
0.0333433266332177
0.1606226670062465
-0.25728093696932897
-0.11033128359438743
-0.2812194511914906
-0.17801058272747058
-0.1182834498537728
-0.19391833887373539
0.047500901932369805
0.10620879297030307
0.35175445092694974
-0.08558142038469345
-0.7596584937209007
-0.4029063881546607
-0.44088719360667655
0.19540530980037776
-0.11279865253761485
-0.12593119410691322
-0.05984510406220552
0.07639122636209782
-0.24430666545733537
-0.21482321538480972
-0.3282185719251958
-0.0001425084605808456
0.08264190894887759
-0.17860558737425095
0.41734863469025807
0.04035085028948534
-0.4742599296395756
-0.22369680595058267
0.16533702008801118
0.1984063836080723
-0.00973382424827134
-0.28454947383354834
0.41182266731309625
-0.500461002623435
0.6489372778371377
0.08876121508643174
0.06382922196586815
0.07854375375121096
0.19282359035096092
-0.03140924659707142
-0.05322846876398718
-0.16513380234618139
0.03944304700222268
-0.16747672634108532
0.028877073017458916
0.24495148155358887
0.11825999845249634
-0.2666303674042984
-0.0915024584563664
0.6373629902218234
-0.05592912161807594
0.27260952688790596
-0.087522808064819
-0.28445225492255843
-0.13967605719233595
-0.17271990191799522
0.538757752357936
-0.3020894276628382
-0.43804083112164194
-0.5657041456430425
-0.22387878632841557
-0.017197163318458136
0.3303045392337122
-0.07515871262011498
0.3759041647648457
0.018573076714002854
-0.262626104901552
0.09732166298103281
-0.1061445061429604
-0.21203450628856893
-0.23896750707876802
-0.33362509909175114
-0.2978694554340177
-0.22160441604006587
-0.9007360254027161
-0.040633771961050495
0.46167091709365354
-0.7452227578814862
0.3266476408420739
-0.008388772518463584
-0.3498614604756495
0.0027751086856205487
-0.44454349170762264
-0.17158294758288045
-0.4536946594174365
0.4910733420603595
-0.2553175637177995
-0.7250605561941761
-0.9609886362410399
0.3815098926932661
-0.05590431263868158
0.0705612732726663
-0.3210186980811123
-0.35922077408095443
-0.22827740296332294
0.05827206466764072
-0.13391509015340658
-0.6186115875220962
0.2568510164900313
0.2650704504818742
-0.06708415459181315
-0.057909021003895306
0.05415274321686809
-0.14169335643354322
-0.1048255076968447
-0.41260829517566444
0.37668056204518924
0.1673030015536859
-0.1763762637591976
-0.023347954935176062
-0.0020962087121511037
0.06353784940220619
0.18071489922011347
-0.5387076498506098
-0.21663814435971987
-0.16094770897350835
-0.8289895880101988
-0.20885068335756385
0.19689713597528155
-0.017499761445188212
0.07067053887781599
-0.621017988090346
0.1305142247412041
0.4454853375746604
-0.02444460728723882
-0.5623188513768027
0.10550920194422961
0.2246342105149481
-0.42893078116267247
0.25848464180703057
0.42044398304893277
-0.10685426933316151
0.2016333284318667
0.06883924456669577
0.14587288550128327
-0.3460026139730195
0.004769356271503284
-0.2466080320791793
-0.044799486682570326
0.06509177259430457
-0.14192640009189522
0.0038350480926070286
0.10173068550178001
-0.3325099052530973
0.44972293198940344
-0.00945133060738056
-0.5948324622562183
0.11324294551010669
-0.28900453213440314
0.3751920450908527
-0.48498281035130614
-0.12210898449209526
-0.31799153353934123
0.47418560060692583
0.22295744164111367
-0.24497545022977363
-0.15097368967643168
0.12943683344334186
0.09993320130581493
0.22105206890224047
-0.14716038181296495
-0.06822497450298436
0.11880144968367409
-0.05852977970817908
-0.06081425317037756
0.03647680529387848
0.07437130167900666
0.1653471888055166
-0.3470150584227347
-0.08102321297436509
0.050573123070460656
-0.16293642653066195
-0.8903159769929732
0.1378367126709235
-0.1433691727856492
-0.11498220898398401
-0.06980676800428054
-0.2210908595182267
-0.4238089925178591
0.27508861538160584
0.45349751299056906
-0.08877949579432991
0.13610338141145925
0.12888175178156847
-0.6423955140018525
0.38040671371596557
-0.1329655141186391
-0.27059961575388225
-0.1096516853965086
-0.10184022171587272
0.06709005525189024
0.51778426690463
0.25055034055572434
0.06273176564548538
0.2292797187951263
-0.3577236638359018
0.32404563549117077
-0.423450000695767
-0.19169316360161942
-0.32486475104842133
-0.1278770842630093
-0.17017822341251762
0.21654236838119323
-0.043453982379878985
-0.10580020065267813
0.027568555184832245
-0.1083054981925527
-0.2359058073162824
-0.5519289008053537
-0.2404482954505691
-0.12975359445450377
0.20635715170849833
-0.4470312260610022
-0.09931870236390063
0.40907180881479654
0.011587126430501716
0.026418425009933175
0.19911362100109914
0.18574803177693142
0.49507067753843426
0.06603912046534664
-0.2817423746648932
-0.26847937974852487
-0.14398899095747023
0.40150556703202644
-0.022714001032406898
0.2227735772442124
-0.5054365883717449
0.17962058264399788
0.03158189360332814
0.33805345867890213
-0.013103761600827006
0.3214184234426454
-0.13558945371718154
0.08542976286784326
0.5585788944308164
0.018281438249473293
0.1744688070867131
0.11896678164529062
0.5871052567372639
-0.23344266702949829
0.11531012205999568
0.3555712736544631
-0.2654634234803528
-0.1504902095471451
0.048659346664867376
0.28418021236178537
-0.47739731427730303
0.17072233077782978
0.1925415482226826
-0.12238503911231492
0.2244232162498787
-0.1337452527749667
0.02018867414592711
-0.39515303691626064
-0.06490365117358961
-0.2721313547650152
-0.3479114707967969
-0.1650510021313671
-0.010884636232664852
0.23499097541445912
-0.20756069871891397
-0.0646281472471277
0.1384325171994818
-0.07326243889617294
-0.13493105643711703
0.012038970374555624
-0.47705734711690617
-0.11651070730781284
0.15383850394538276
-0.57329939950743
-0.8051669606801171
-0.29428668565968824
0.1811419452924977
-0.11847393351814757
0.05925742056436308
-0.029002314663083877
-0.7782872085344875
-0.07173981971756496
0.32774225290554654
-0.010098075416810228
-0.07883209140518418
0.4196827740078363
0.18941287888229136
-0.546230259733353
-0.07962723619383552
0.21157929428675004
0.6404834039753783
0.7354650433703916
0.5363953412111686
0.8343728743254346
0.22397306453860644
-0.04642244476064591
0.5843872927672873
0.4977437042986337
0.08604050120621284
0.14905354617721195
0.1075584794594245
0.6447364316489669
0.7824390084470566
-0.2655820084453621
0.19566506868947434
-0.06317673067917667
0.005294129590246719
0.02395864787301071
-0.005805780659983654
0.14741080429386808
-0.44158484225622807
-0.16400730368952926
-0.42900022554082035
-0.4427029642915908
-0.46512666145947185
-0.27044598154473154
-0.866983922217224
-0.35750959100559226
-0.018265570661834492
0.06467719474900156
-0.5026770758725727
-0.26510168531221123
-0.24916186676763574
0.022505150925608723
-0.30476474659281455
-0.11743408883427546
-0.5689612607855615
-0.49895901913963797
0.006946153673533047
-0.01499278917245765
-0.4481209102866724
-0.5835804581542797
-0.08599952883048415
0.17868717655062288
-0.24023109763171646
-0.0525704307352825
-0.11370616890015338
0.3250921004725344
0.13759077431805983
-0.08563100884078566
-0.07981938978300529
-0.5669593764540515
0.36015502216796685
-0.058394194740643945
0.01879940125600513
0.023315320398209143
-0.48513096787823384
0.5188225756607464
0.28148653020424286
0.15604132627431916
0.6487005171936011
0.0043489255152413375
0.147107633521249
0.5636512710776718
0.3816042054522757
0.19348555291299963
0.2299365611796873
0.3333079833940749
0.37029620567893007
-0.2832029905325265
-0.48296938398623734
-0.04059933478759108
-0.30355782663416053
-0.2329727554459049
-0.09097669094155202
-0.08036011086229139
-0.06923394246021626
-0.13309305829484366
0.024429767173822756
-0.02288261482651949
0.07831262062660008
-0.30777000015746764
-0.320427881840935
-0.15594587505673288
0.01300997086957743
0.04129116746135843
0.15061073130983135
-0.07560187930272519
0.04317423469913675
0.1474872130135388
-0.1758721860050395
-0.17063028802692665
-0.14532658726668546
0.22092645928121862
-0.23323980164275546
-0.052391130947030344
0.1650699813211499
-0.14308958146380196
0.4613720070468509
0.3210999298060968
0.3127710734745747
0.16480815322533068
-0.01061380228050975
-0.39885537301681834
-0.17360245324311369
0.4379195587771995
0.24007754857978764
0.40841942396508846
-0.025075879523914754
0.1147324482378646
0.06279509909716487
-0.184700736156325
-0.0031725252051807793
-0.5750030804071888
0.23226094644044187
-0.18557823880355961
-0.1782351749739316
-0.37150290221706583
-0.04298348269355069
0.10660755801419282
-0.19707328911754726
0.014970968492013539
-0.17917254044982256
-0.07314447735606382
-0.15885691019949758
0.3552486231113758
0.060589846803973474
0.20402492427949057
0.14884636286675426
-0.298504488333412
-0.2843277688378942
-0.31704114478693096
0.35674373811797655
0.4185429833375843
-0.13753400587928116
0.11649932743476461
0.24028885849682177
0.003865661289321588
-0.14900660913623437
-0.17747852343469778
0.1955816076722715
-0.1941672955401661
-0.14751751854294926
-0.1111119045485718
-0.08499294607893652
-0.1098210185874296
-0.2993634322356709
-0.0925353103842374
-0.023412534927932254
-0.3159444157425755
0.051447529315895954
0.0959204265362523
-0.2500308331767866
-0.35693071084229155
0.4625997377969227
-0.06233605646995395
0.0834138242211451
0.025520921671726746
0.28861738819576394
0.2786668892291886
-0.021329605081807885
0.029991225658089638
0.17074453658471508
-0.09861930244118941
0.18699133593417702
-0.09469854285342906
0.003827911177639436
-0.07401657908574899
0.018997113303198573
-0.2442769438853666
0.029944414000396154
-0.16156151424124396
-0.3409053093446991
-0.3041704687142744
-0.08903341321795384
-0.5835159775199452
0.07053827157687986
0.017385864007607346
-0.15146022066949083
0.0958617899062089
0.08662393180184724
0.09465507590330595
-0.025096688144043287
-0.16588435150463374
0.16800038921444893
0.5268912002812245
0.7683124971504124
-0.3911631651304101
0.04280305310798315
-0.017490734426171505
0.19305976207984024
-0.3247836992036527
0.5466474434021156
0.18987465902449652
-0.21450771515622005
0.1707094405881187
0.6633042727181215
0.2654004369469124
0.24401084996399106
0.14883301191595935
-0.24582735942518294
-0.15977418119669162
-0.0626252445026623
0.023358451303725124
0.16494751213982425
0.12778756391448506
0.6069717456857527
-0.09022900866675293
-0.11782630791514409
-0.3691381228739556
0.1584371075046654
-0.11855951881543363
-0.40710152441340386
0.1390005123106601
-0.07259400734575104
-0.14135837054483896
-0.3393050598614734
-0.2531118498515616
-0.5946227143139502
-0.028634713857148063
-0.14741679057503487
0.03919301469263035
0.5055133677521305
0.09989515872174552
-0.21568290169003998
0.1760700114710301
0.594656183993965
-0.4594577492163426
-0.004802941363509363
0.27450529757742
0.1520298157908776
0.07124805111025832
-0.1901726387292245
-0.34575573470297966
0.17301403314422537
0.21700713599053953
-0.07465934427825346
-0.26017489064583765
0.3996047065848284
-0.14256926399611133
-0.4849977822391854
-0.14927358894147805
0.19898159429421083
0.5903994592575795
0.3191498361429029
-0.2963441039429599
-0.05485394979848834
-0.5172645667145168
0.3362867635416463
-0.05782839634357778
-0.06253095892535993
-0.022168786726728562
-0.4279403232502425
-0.17283903274835458
-0.0753702980092892
-0.5474110560831142
0.34146933208061353
-0.20532322923413962
-0.2473742627867468
-0.19044548240618536
-0.0160025685524434
-0.08414317565086424
0.37600557019618075
-0.15662915032144797
-0.4453544410911148
-0.2308335090076685
-0.47634001695218936
-0.008796493119307167
-0.10338090178452
0.16951572749683338
-0.05997266824653098
-0.1576523916344095
-0.004979221243064844
0.08404097553569423
0.38619507528959673
0.5146130248778283
0.5288103067013799
0.42000672644078896
0.0014836459828381741
0.13699519913019054
0.15075395570746447
-0.029710101238576266
0.30043505911677926
-0.19717980272675523
-0.5753473783951059
-0.006426021557201865
0.14409887541325575
-0.01632742505783185
0.5325658380823193
0.08450820619932517
-0.23273703015349015
0.01134141240236937
-0.04609824995340328
-0.3009296618826693
0.27665797941456377
0.1036159991138616
-0.19317958030889765
0.05714792814095937
0.06923939204587895
-0.11148381486198677
0.1729574132986327
-0.274247115722048
-0.36968041025171355
0.08313251182283544
0.09895951927205333
-0.6361568556912683
-0.5318304820794091
-0.019323044057631744
0.25628192683228085
-0.13093186695629142
-0.2615369324935811
-0.6779699756091292
0.14490859978778492
-0.2100748694079061
0.15094797453206754
-0.3454051315696515
-0.12320002598082223
-0.04764086058530382
0.08667337983323731
-0.11313738746419943
0.3152177849082842
-0.21113564434068757
0.19293365288000924
-0.18968483224383237
0.2504214699119379
-0.169654430175739
-0.22680610761887052
-0.35889862904107916
-0.4065009015966922
-0.4151821575497871
-0.4422710521673402
-0.023157987979586354
0.24822453478050108
0.31197791085632726
0.16018551986668217
0.16646458018760824
0.3564086154893393
0.7583842195758908
0.4922228179669501
0.7488679103000339
-0.07886430642742838
0.23041909343346884
0.14345379610145928
0.0511112357844405
-0.44211420773147303
-0.6041130518012348
-0.24493748194267514
-0.29361993338847314
-0.4274070872838109
0.2779821141763043
-0.06863636534466631
-0.6469333760288276
0.5417609472118369
0.040811092910899155
0.3217577590648265
0.09050216093046422
0.021883574202894277
-0.5868400927439259
-0.492073768217923
0.08661190432439383
0.006121449285299433
0.08957296493292657
0.15929076204423867
-0.5149186795802991
-0.1359150472927594
-0.38680382207805214
-0.1899542158445027
-0.391301778601511
-0.2163761577406858
-0.101859680577076
-0.8046598217399191
0.4303243933126048
0.10033387244264952
-0.039436009815458584
-0.10811623219283817
-0.22336956912062808
-0.027708502701156747
-0.35710645198358276
0.7409176456576514
-0.019394775330383068
-0.16186581745221418
0.013667717434712274
-0.6083307835105367
-0.03821691868476667
-0.026246688564183225
0.003985620607989172
-0.01010657608738229
0.25450959572545795
0.7742284768784797
0.42480710594387766
0.3869445645595819
-0.02020666988085113
0.08039221209983088
0.20526996127125782
-0.12323591466952524
0.1429202716654871
0.11478829366304914
0.2376931032007298
-0.1740516264642298
-0.19746793364290863
0.2703378319164473
-0.019575510454561157
0.1939381762386572
0.047162502423040105
0.45608967945516704
0.07179611685643626
0.16399044162554402
0.07213828335648374
0.3868346456279096
-0.7276171764259612
0.25435852216519805
-0.09800702703633785
-0.11754508299189113
0.28696945998398055
-0.45548208368314064
0.07803987167064404
-0.6035092564917975
-0.24237314837444712
0.14065316145877335
0.26171404472026405
0.09912323459912724
-0.1310564278621323
-0.050010479321439115
0.4584536918811147
0.3153900163868153
0.383093989546334
-0.15177872323807598
0.03633698451286687
0.03295397057198393
0.1402913979676152
0.03407522351221238
0.2559068941424127
-0.022270574662541762
-0.20930563262557728
0.002926169883103172
-0.19700325068202396
0.17732519929931354
-0.6670516165322363
0.1527740806235
0.0444868938236586
0.20780322791482073
0.08207209880914952
-0.16924834766228378
0.059619114396407075
0.14505029690326632
0.005411998927317847
-0.3342392005247844
-0.18245892354998375
-0.0720744332916163
-0.14103144759250388
-0.04991841586963187
-0.10647751570059888
-0.09700763508028112
-0.14039858284605275
0.10751696219537617
-0.1194657302688774
-0.08273726069601545
-0.1678336982360311
-0.5093949843563651
0.04964988413294903
-0.4869631637661524
-0.4195949434467236
-0.2064282811397193
0.04247814507625586
0.25553428304027026
-0.4957386049386738
-0.045580694793448645
0.3894627878806907
-0.8107875407491912
0.24622491143097094
-0.046923211390415935
0.4039157315878582
0.2607347276031973
0.03350868877489508
-0.66150511435605
0.35920636127715433
-0.4903998381559068
-0.4148379297020655
0.09116041752526378
0.9854530891612713
-0.4116215658720664
-0.48738116042177415
0.27977374003916283
-0.07722740641926364
0.042683911114465414
-0.2021971330420026
-0.2127927487895876
-0.06786552577664012
0.13816241273052499
-1.038691875378344
-0.09401777744272159
-0.2624142084306942
-0.20952567753479243
-0.2819087391901278
0.187836347143813
0.10914983393890586
-0.26467783766065983
0.045763400695908195
-0.0037260750859441985
-0.07320223664277624
0.037445544558716105
0.017730940068383723
-0.29905259448810523
0.32032919812443617
0.08464622216054055
0.2671250376370402
0.09973093403963629
0.11617380548553172
0.451929764277922
0.6143182116885867
0.04646310251547504
0.8868447730528892
0.6253038045861338
-0.6682210087581298
0.28930118438085434
0.25231794050259343
0.1480595537196417
0.008665421889408505
-0.17300017996453632
-0.04369794795306824
-0.322613271525421
-0.04961459133755587
0.02383952753483584
-0.24469950372840354
-0.2856844095090544
0.11440887109763069
-0.3289941390769282
-0.4419174626701464
0.2787618865862243
0.02710038836161907
0.10237421796577113
0.057961308273074684
-0.2934060974997189
-0.20139827647577083
-0.5764633594800963
-0.4368620438543193
0.0017437874151594187
-0.0035191412189854695
0.0953339952989825
0.003084603965948944
-0.31970152944021357
0.08052515040116302
0.33573666746593595
0.12267227379853032
-0.026291143126349642
-0.7829449338908939
0.10719682738139916
-0.06471933317898484
-0.5657369734720845
-0.7890711789366758
-0.4028723280658953
-0.5244434431853529
-0.2625271444935597
0.4659999769571261
-0.35805143211943813
-0.403783025853547
0.12707781422621275
-1.0488825382613776
-0.09523753691014972
-0.4821517748319191
0.04909037104803848
-0.27777392803744544
-0.06607973010701503
0.0030763827402886974
-0.12948202561214764
-0.42844341069305175
0.05862943459118448
0.02594121884843835
-0.05983225582567988
-0.18989142501869802
-0.41080957145741154
0.2519765399848935
0.07888651744267698
-0.1273304378566348
-0.00028007140280507554
0.08294851023567335
0.3568544487153753
-0.22198534105835752
0.39217735934034764
-0.18310146241134537
0.0029666945793272843
0.020067049535461
-0.04768010215096415
0.07333798270523154
0.45246411362125577
-0.3979674829205285
0.0009738995468948435
-0.24411676620565734
-0.16141300555761903
-0.3235213656290523
0.15384521109839783
0.06799132122557054
-0.31018128160222125
-0.04538136444304631
-0.15832533997693216
0.07958836732956213
-0.4273808230349988
-0.13303416676826937
0.6937337099081268
-0.2153583382364002
0.24058050946405152
0.07269484053656237
0.2363825211961909
-0.07015174974249819
-0.005622092292998401
0.1216620566658691
0.3516616255054527
-0.5515540445560158
-0.32896053997945607
-0.06080272434363974
0.5730367116276852
-0.5670939164590014
0.38321826346546883
0.02087603462872404
0.13077533493865134
-0.07834418836081194
-0.035074995688883975
-0.1652165058298684
-0.03008729186587006
0.0007657569398319456
0.05902467056324712
-0.1478466296278163
0.04646790816795686
-0.17589910724802754
0.13826548242232506
-0.23840049301840768
-0.016920321315920674
0.3363352064070442
0.0019524752300666146
-0.6216081907605333
0.18713719126710768
0.023393928682842267
-0.47177421515426543
-0.11717855901705979
-0.42865374597136663
0.5114365129352999
-0.31616143665435825
0.45393018708711214
-0.049859208069906985
-0.07163842457426738
-0.04758492851146695
-0.07881221451105784
-0.20347867738375539
-0.044631841672427994
0.34364916638521764
-0.6600606516863835
-0.4084426259880859
0.06573381544940644
0.24204587984612
0.1980220691260428
0.03662346531539326
0.032418497734707334
0.028969864869652813
-0.1405277984472524
0.09045391747622396
-0.009977691379415628
0.21177402589032512
0.09081790309095651
0.050990447643430366
-0.10094945671615213
-0.5868356307578437
0.2017252753543654
0.23298509304949916
0.022709643570472705
-0.0434756526609116
0.230701045157305
0.02192861261633782
-0.1756027207814725
-0.3493749343896725
-0.31284529351247875
-0.01802828036958649
0.23654913076787776
-0.3569952968112206
-0.0544281232646377
0.005760802812224621
-0.16179297053489
-0.3514827846335907
-0.003037835928935174
0.35990731138374193
0.004435179969072741
-0.07809656290570985
-0.40577260323692504
-0.0440263171713254
0.31477519824574085
-0.2567511740463204
0.05088418731055769
0.09519358649958688
0.5776769680587521
-0.17672256637357042
-0.17092261220715804
-0.15777879835136957
-0.22379393093993105
-0.362632710135908
-0.20361099921214487
0.35815736621489636
0.6082015796680003
0.20459822917721135
0.1684398972281497
-0.029585714203117442
0.05571289225852667
-0.24171574296334744
-0.004555157142967923
-0.06005312490962036
-0.2191140284573577
0.02922854090888554
0.144208952818002
0.2580516085090134
-0.1580649138722992
0.005071194210376625
0.41964496457610145
0.17259518327222304
-0.698000240449054
-0.009716132758726516
-0.06169850568504622
0.3872142247423392
0.09483913284742289
-0.0105047713480073
-0.11919364443029214
0.0700169584637764
0.31083537717223586
0.0775213293046887
0.011262806462298141
0.22910947393535397
0.2400602224461396
0.03462567199933368
0.24244617270793425
0.2409535727263882
-0.24771595726914514
0.4560644878391366
0.04653609103718738
-0.6526752803906885
0.08221765576753107
0.012303132883405109
0.0607942070625474
0.16483088293615228
-0.5020808482220148
-0.02827641356509576
0.09311906896233269
-0.10239804979797512
-0.5717550715013278
0.38898245864208675
-0.0588152788135169
-0.12842695739028062
0.07761634523504449
0.08081964359662112
0.019008166616788818
0.05048934164584927
-0.2598505776008086
0.537559798005682
-0.059526550254857286
0.06922166399815831
0.6151574216692925
0.33338700379462893
0.5211130107368219
0.4703920989464343
-0.47602650661270707
-0.2930807285422615
-0.8218281113673362
0.7100369882460617
0.01695442151750396
0.22758621045329558
0.005631483768249024
-0.1146857066053692
0.005863508089344118
0.3244812036404831
-0.017474094759061524
0.22991315569081475
0.13552771118902235
-0.046710834851711514
0.20987180520297993
-0.1263954609955497
-0.3726591157888619
-0.2659372526036995
-0.15393045916112344
0.3115347908709372
0.1326836895315336
-0.07089767935883562
-0.26796408425319085
0.10230524976828509
-0.33479286686006726
-0.21139669455882523
0.17219952401637653
0.11635139626959483
-0.23041369005724455
-0.016090647035499592
-0.03839389567105075
-0.10345644535682065
0.4011584099746523
0.02144580934901475
-0.433251890080045
-0.6276384878552331
-0.30139729076015337
-0.2604280483910663
-0.3712285605002073
-0.043312452976745595
0.06771169496962308
-0.0007145265553617829
-0.036851677571720434
0.018422743082662733
0.2670025910794827
0.025118589326426886
-0.11362615771682837
-0.04235025772036494
-0.047498560136401226
0.016737201888765617
-0.47590477929343394
-0.43122343126542406
-0.104226690258506
0.1149578042262418
-0.09362334937952994
0.7656649264282773
0.6779538485409856
1.088245700575467
-0.8009756147732214
-0.027296537253260485
-0.0714543043886536
-0.4397061880740315
-0.2913863548940823
-0.07951387695432172
-0.19051164402718665
-0.37661126992653093
-0.10250651368749968
0.2739537926221547
0.010257016765381134
-0.18767787390745552
-0.20705908651644114
-0.29417251450661275
-0.21536197691666367
-0.258901312985393
-0.08195132018003029
0.1773643140714169
0.12119375695764062
-0.16627570473248385
-0.051189952561357895
0.07300932660585135
0.3240495159323593
0.07574928767420981
0.12370528508654267
0.3615314274248158
-0.40596648852340433
0.015639524852932483
-0.14026748832950367
-0.3052189737552744
-0.16391453105892845
-0.19756295383513778
0.04194377043534664
-0.03957076019643145
-0.07499441024855849
0.006484012549986509
0.08187600924736546
0.13171520856395902
-0.33470543175702494
-0.16147957306358202
0.10995945577744831
0.029600973068201825
-0.04574545709933517
0.08249584528141662
-0.1184726918208769
-0.474466516288657
-0.31226502410187457
0.31010599945833256
0.23047674228833076
0.526358839522387
-0.23732840597301746
0.5739298681208297
0.06130882661763727
0.06017593322510591
-0.23218709785455094
0.3882717690977642
0.20151542947667692
0.5923821112864299
0.12452534030204587
0.2841917183519104
-0.5868983467548287
-0.10637540458382236
0.4211539414132082
0.4528115720182828
0.3665258252793306
-0.26879642668256276
0.9992652931257862
0.0035458676988076813
0.49215978227533
-0.00546714487382431
0.3781166285573901
-0.023142446682504977
0.12576576877196774
0.36833231793144344
-0.06763528838580254
0.1868497886842765
-0.05248637531591638
0.23371083388883704
-0.01112495469717613
0.08403786203993834
-0.18457709521749371
-0.30927406692470866
0.7072535624079823
-0.0868479682446795
0.2570241890606472
-0.28766019250217223
0.2543564071160641
-0.2514386612373879
0.46370012501425745
0.05851929179113455
0.7775204095249509
-0.15034575449472828
0.4404191186689855
0.1125156093553883
-0.33195496297836696
-0.32181391658340747
0.07992663767309456
0.04031042261450029
0.32208666547920856
0.4110276607198088
0.23014524005788634
0.11225409112829918
0.12692627765676168
0.1998045928584202
0.23253636092433347
-0.0464507382111462
-0.16456640036473055
0.18933999387935696
0.22062316129794535
0.06457350018697314
-0.16620741851140053
-0.9434554846395756
0.20190846862906286
0.11260334250422226
-0.07604588489786487
-0.04696835146555421
-0.2474071662281237
0.1816231064794806
0.04651635588119601
0.09481864588613528
0.25585159241394645
0.06943016657956731
0.32968696811295306
-0.06851242202992228
0.20002283523998687
0.0584103478636343
0.05634557051297781
0.06566582129522906
-0.31928462806555463
-0.7536534184529746
-0.19219653961810182
0.009821158467187579
0.06902545333701648
0.012729081830312705
-0.2771399953619245
-0.05405739997594407
-0.16596913125088814
-0.12350890656999847
0.46430007727636335
0.41318645403434595
-0.355147636959433
0.1641769512746
0.01370604521705997
0.40267103316124014
0.4035266266287847
-0.17772968160447317
0.4404445294344644
-0.11257805424562504
-0.01335287052657032
0.3048536209646951
0.2254254814418208
-0.35256726718569775
0.46764068304202255
0.03107951762751482
0.1734851921960869
0.016362045966663182
0.4716564114743841
0.07328961811813407
0.08415188304390585
-0.02388505914577383
0.46534695151497496
-0.2803133871351984
0.849341010558292
0.07994689774620663
0.0083875633649495
0.05865400760397362
0.21705112758506145
-0.09802388335418456
0.4065830538699396
-0.03846627397280919
-0.18211636814179932
0.5114505478418406
0.0451855608253754
0.012890439793162121
-0.33362710467826817
-0.4545491362373135
0.11663181361492586
0.20398965872133276
0.5210628252758056
0.058116417524338784
0.14765945498374208
0.050988488453128034
-0.41148322711347807
0.0831644793036668
-0.4965156290574512
0.2168389859791557
-0.301233451363262
0.2623608863608107
-0.0728003672257252
0.4395285792171062
-0.0238405401699504
0.10424017674523588
0.15037222392333194
-0.01841110962447665
-0.14831915398014112
-0.12982900857477514
0.2869835794736215
0.0700163673121661
0.12798852486383094
0.07751329168385912
-0.33555770526776746
-0.3035846837784114
-0.22508850072591738
-0.20621005956445426
-0.09110210261682201
-0.13034140184536452
0.8889221849950647
0.12986572935813034
0.16967793131461706
0.2617750413821807
0.32169838335102235
0.06627747493526971
-0.03801662445993191
-0.20263053148607568
-0.3686167760485951
-0.0128798897412118
-0.05437387846437729
-0.17434003881091534
0.1886312437651283
0.183721426660564
-0.30220150552408126
0.0416022907489265
0.01261846443496531
-0.1208034084853267
-0.43935547303982625
0.28206632169833334
0.202773936133137
0.09707993018034476
-0.11220605060415426
0.014476602323741341
0.2365766587454065
0.07235170783276816
0.4783704922426138
-0.03384842809821231
0.25221794500770245
0.2928889588961056
-0.19969971879252546
0.32561705204442565
-0.037090901427241384
-0.2597451719503686
0.005220124923569775
0.14202225492944695
-0.3230871302235813
-0.44721422876139133
0.40901862588472204
0.9455981699623689
0.9672667823812209
0.5339551725829882
0.7774318249887199
0.567440488121378
-0.07426835585469625
0.5795360992973924
-0.0747093310695656
0.4854916795379421
0.0787398191970458
-0.5351549991015874
-0.41911600648602504
-0.46628795849371363
0.08465962541005452
0.1164089737418651
0.21642135610936242
0.5720985249272759
0.07797950494452638
0.0049207549031914325
0.09164589266893933
0.7913196482980788
0.0714683083739086
0.31530542481920354
-0.1762970940406531
0.25333035029623474
0.08472249917000181
-0.002870380023256292
0.002283120808218704
-0.0723066041981588
-0.16858558757093317
-0.005692576017011278
0.2686221506273922
-0.12686024102659366
0.10273031265560223
-0.13826758601780545
0.2843729163375756
0.21888522713339387
0.5572299092862041
0.3985146098298506
-0.422395424870721
0.03257223082914831
-0.2277726447814817
-0.1010556624046686
-0.03221513079250772
-0.19131769521129202
-0.8173810602252454
-0.14256775698410123
0.19533236111593627
0.11174139706514662
0.3871106936055202
0.567576018637816
0.3951137407888478
0.01701191183806572
0.6451528178173814
-0.4476613828382158
0.1618708689543898
0.1747248140581793
-0.13963023046847656
0.06534264648852064
-0.03588857205362902
-0.022159705344463515
-0.15864326470367301
-0.0928595629381811
0.31369325792967456
-0.03858740430330849
0.4413916010557842
0.28188474589030155
0.244239769285477
-0.1337525280383979
0.4552500846684369
0.10005868035253082
0.43361770834790525
-0.2936372783645021
0.3255589526090323
0.1396074525744565
0.11316322339345977
-0.13588522757194657
0.10539088769407896
-0.0651965931290965
0.57208612134085
-0.20728133028169624
0.26251537301904443
0.11445920981499903
0.053931715190429004
0.029472051589831256
0.3023043765553067
-0.6509518310062408
0.1783036119942941
-0.03555517250723272
0.06075090395471616
-0.5544951426100527
0.24459199924401095
0.026970534324127732
-0.46414580706463326
-0.5174811772641276
-0.2387972063769566
0.2769540300030814
-0.2202122780592104
0.6711836025075794
0.14235398502048674
0.3420586797244291
-0.14437302047537928
0.2002403933948902
-0.07174114053279602
-0.08819800161229074
0.051757450460393754
0.046369808852081196
0.197885928847768
0.5667320938047051
-0.14390895380376983
-0.0007786218884921342
-0.31030612104632294
0.03940414360742533
0.057570149259552325
0.45854580061995737
-0.1514849486360397
0.8936661812735067
-0.006925340799386828
0.11661310368992293
-0.3260705472936109
0.45413591398630043
-0.4398968459994086
0.40692057292338385
0.33922424141512436
0.5392903266768035
-0.06256319314386731
-0.48954237406540413
0.16860605963159198
-0.04568706968670694
0.031552100703233305
-0.002119161234665895
0.3394274428683905
-0.2224670517514312
-0.3462336760075363
-0.007924113861053447
-0.4288097597953618
-0.2524976767884818
0.19152269691590518
0.5406436615174779
0.303193221431516
0.5214271788849153
0.19099412669403956
0.1308355588366571
-0.019683337140740935
0.25510752353150984
-0.044250399356734665
-0.3139097603158406
-0.08194151994728759
-0.08191183023779501
-0.25996652796971204
0.2442064175455083
0.08417632448127778
0.0066163416956916705
0.4298359234050287
0.24189237477526468
-0.11571751311326166
-0.33967592676532155
-0.40670228691161914
0.15876135464611285
-0.019615405908690386
-0.12356465539260746
-0.7197383159405879
0.0240051309043146
-0.06916953986760052
0.15608491874363495
-0.01087426501535482
-0.01990321794114348
-0.2476236719545644
-0.048165778444881735
-0.026310044864246575
-0.17707459174422938
-0.2717452460150543
-0.47472065121254464
-0.04240104039911776
-0.18174820567547056
-0.3273537628053911
0.13903798495182954
-0.0072732306572278905
0.11503052093669455
-0.17057723949080872
0.21995150012834508
0.10704751841771509
0.2833995679204403
-0.05308752415099706
-0.5133834789125491
0.5136193265784408
0.1113486992211263
0.0903500183571849
0.21840636251851758
-0.019637904472636955
-0.5596825777282046
0.06113205352145013
0.234286455502334
-0.347231544090844
-0.2513330907539648
-0.622039892597135
0.16888477258336249
0.0492065344003286
-0.027585359656979575
0.09957845076669339
-0.12364839506775187
-0.1927392271007134
0.5760951881964793
0.04972078955191383
-0.12925246135045598
-0.08974000930357758
-0.18264747552455152
-0.0905851780074283
-0.06490529823562526
-0.9376734208585344
0.36480280434945267
-0.24158045859206362
0.37741932764844793
-0.08190454162081784
0.6567646917690645
-0.044360459394309215
-0.04484883572321814
0.4909363698735941
-0.19287486116370006
0.3373228511607993
0.2764142694601245
0.11354974079006734
0.37358104707322587
0.06351891203119907
0.3193461760917984
0.27090305250506247
-0.3380289466994462
0.032048482958198024
-0.6817310840490535
0.504882531688204
0.12295883508878908
0.24477167817742268
0.26586890457473383
-0.6336528038964364
0.3566048728017977
0.06233540754213204
0.07137224646628364
0.2257364859400796
-0.12030632590180236
-0.37324067677519596
0.19128159931974198
-0.13533417744529852
0.3374793744858381
-0.17216631828318646
0.08428713370128264
-0.039572334284117695
-0.010560403261283612
-0.6881822412891052
-0.16336069471133555
0.3845036502687347
-0.5408241842789772
-0.13235756327848267
-0.7813889071415137
-0.1541818874182376
-0.0926256342275654
-0.3081643947762901
-0.045199385114776905
-0.15734832786277875
-0.2520757725358071
0.5737752640609335
-0.20705926508210773
0.02968456175735301
-0.10234557474168728
-0.5416085087743785
-0.874666843750897
0.47078425422107223
-0.619768485014469
0.015838718632938387
-0.2983086808845817
-0.7039508763841137
-0.3135188469170769
-0.005580787817422115
-0.03897926980149797
0.0972031357843174
-0.07951231081482554
-0.16537877238829546
-0.21011918123034817
0.15467211299228367
0.08736045813486677
-0.3088018110117073
0.21553888306138197
-0.03375471700566359
-0.35987091970762386
-0.1339914874969613
0.30129034469553645
0.12346573704265948
-0.30735108706110875
-0.15559501741757248
-0.36864754620062423
-0.19276570273629884
-0.18461882919582712
-0.5029138050457924
0.02050859257988521
0.35665800701579065
0.20601052441194145
0.0775777605029922
-0.758420659452839
0.0717793210085965
-0.42408645158578184
-0.3121948349567294
0.10473884005997672
-0.16355330724747874
0.2649526006353162
-0.4623430882958731
0.010890555754767427
-0.5811591825938399
0.048466364730064396
-0.06169211317440854
-0.052133173093712314
0.045382413825442336
-0.010477409918528184
0.17046740863986345
-0.016866854490521513
-0.46883628559974133
0.24463010424640427
-0.1543425010598379
0.3954757859379828
0.1061089753761115
0.23375481933996792
-0.3099688717262258
-0.09597668594852624
0.09847639123038351
0.3239300890733119
-0.26131123141375723
-0.5513332411777477
0.3092968518723474
0.4361818125684807
0.062279135608758744
0.23882937726955927
0.22904071059255204
-0.4515404602054751
-0.3650796013267901
0.11651399742783239
0.22149350978729623
-0.04912273738660215
-0.2038506606235228
0.003804279517470769
0.15010515960476412
-0.44417376588412516
-0.2866357397603736
0.0837969085522135
-0.12474040586702162
0.23297616997382747
-0.24197936260000338
-0.6685688004717396
0.016330439479555686
-0.2604906757435159
-0.22602199079282578
0.07169349788412274
0.9412277608128836
0.10425637808543034
-0.11584848926083097
-0.5934739338479207
0.16008506614835727
-0.29218705756846514
-0.6137638082465252
0.41887605653727805
-0.3722143766151221
0.444457918325587
0.10169898840644039
0.10059490968522095
-0.003296329188637074
0.0779169143302898
0.1872903727475238
-0.0406860548751626
-0.007869411226745681
0.5372732826827887
0.23693659723122928
0.10781356175225097
0.36384143726778684
0.2355155641449456
0.7791129618426181
-0.7087851906097273
-0.6824406498434471
-0.24627231309990952
-0.4318695590418824
-0.15870498968654648
-0.016058640828965687
-0.17080039921099263
0.48697081226227834
0.3138954927766185
0.08103524364128098
0.07527492113293366
0.1016145385915166
-0.03372280978969237
0.0729341045702165
0.27766081658731756
-0.16145792081058893
0.3258537573620436
-5.34193705124724e-05
-0.010295976397861114
-0.04134592974864037
0.05105290072442147
-0.10307416709285977
0.15130730276421997
0.20110264412314086
0.14429708908429556
0.05848586425582762
-0.18969000710070763
0.35452572958069034
0.12140722505372455
-0.2766654306940206
-0.03217326585917528
0.33384099445678855
0.013934911035879809
0.3002000122796823
-0.20223917095870975
0.14215759214046855
0.02274178750363248
0.2545465069898575
-0.0735826470766372
-0.3908012560561274
-0.19794476206664283
-0.2728075184922851
0.017220724969364578
0.1130772275964603
0.13486043436035394
0.4221530512888952
-0.20032088617404717
-0.0902318290211558
-0.5782639247405232
0.06010582490081215
0.406735838847894
0.09968415540218058
0.11549740858028329
-0.48685803030443187
-0.5207114446201464
-0.2487231613691521
0.13058712140823045
0.17912677542307245
0.3097896412822398
0.40872080089867385
0.08118998725500765
0.12630396717480888
-0.5629091121250349
0.19951896879861286
0.21765041676881355
0.4840510984751478
0.53151128296576
0.2526245821287713
0.4400969591605818
0.17761634304163523
0.586195052356732
0.5722703080860375
0.6885189666011867
-0.23848805576619056
-0.6969010208279771
-0.25111912533295905
0.12308062166528218
0.050276807921546256
-0.11219895454529216
-0.5093751461354779
0.08586514644510529
0.09963708839705601
-0.8762717840517461
-0.17334459648276698
0.01798215221469013
-0.37536180641589095
0.07964689507484404
-0.34413653131810024
-0.4165936662362671
-0.28156960345586796
-0.45714714355776215
-0.31700699625011725
0.005736115981492191
-0.2790221757396789
0.1097584916151528
-0.04995273489812634
-0.056706425103491345
-0.4945284146838612
0.24272792297567133
-0.013114780453234502
-0.233119352890589
0.0008688985367683803
0.10642285224252619
-0.25293469157146686
-0.1678445023104654
0.333581235984853
-0.022493397856908022
0.43678303366260346
-0.0396741610546972
0.06258419919779915
0.09821638968339579
-0.06671582353594736
-0.024503531158330715
0.05146935861816911
-0.0176230194035257
-0.2107769916744449
0.31144216460613305
-0.10854216702660983
0.10506114473062114
0.5457780175525414
0.00925630658094503
-0.1221049518625856
-0.17878184136672418
0.20609483262092662
0.02429722468531528
0.6390759090931097
-0.20182366463526716
0.06951816759472464
0.1716435029913009
-0.3272535486263205
0.35315315721006035
0.0728168987627264
0.03615692892219066
-0.13779690180519932
-0.027648653877348914
-0.47917380056583186
-0.4015485819454632
0.2671154771082319
-0.21742152358500244
0.3842899811676734
-0.04525291859251
-0.3587450604625273
-0.07616749524368298
-0.07059084087312004
-0.022364456667150416
0.06619634368316973
0.0157939132823559
-0.6293322473536572
-0.12213645761412292
-0.3166983536839512
-0.28183541257678524
-0.36479981055368554
0.4738610415922851
-0.4438932901680411
-0.6265488208951469
-0.28967315359155255
0.41310604646531474
0.4620408610109519
0.014662088587781005
0.02685236364475643
0.1689399536761611
0.28217432761671224
-0.1407959748852831
0.47033288022566516
-0.0963696642126042
0.5856063703604895
0.08166624675767173
0.3212642159142674
0.057466711882938386
-0.4877189223240007
-0.10471046595463475
-0.032063077937289935
0.3323702608543518
-0.12641112446486755
0.15017904224315978
-0.09024162589765587
0.1555017533295834
-0.007163890235522373
0.45280181689163684
-0.18795959254520633
-0.317496257874604
0.0817359720173167
0.03674690190271456
0.14819160850450278
-0.01753176692415136
0.2309344695981424
0.0257017818482928
-0.10741610813929207
-0.1858558858329512
0.12664752563459641
-0.12339481455798913
0.10920554891754997
0.22939724880456017
-0.054150112931314026
0.03569108072343164
0.16907932874195838
-0.0028434526150706487
-0.3604416275950938
0.3674619352717348
0.18145870816800916
-0.015051270081889508
0.12489387690994462
0.060049144775018826
-0.5760242625922541
-0.06276107424342917
0.3442368847251822
-0.34356988981335845
0.3188448677586007
0.12642141419381725
-0.13246555369466695
-0.3863347725678228
0.13983803655847424
0.005773725167802889
-0.2956468849731729
0.5409127370018771
0.03350476130440117
-0.5121121781358945
-0.09000812741465229
0.120834345362237
0.08986755774707321
-0.16911661336433007
-0.24254645432386682
-0.5302411123751637
-0.4995871853333226
-0.6320105442166898
-0.5641106558495951
0.05776849882488677
0.11302472221794656
-0.0011224949526449258
-0.20865625942509608
0.31879889656503546
-0.13826680498684363
-0.17690673338241433
-0.18803935849697076
-0.0646448797118482
-0.09588462549182579
0.15405322531828836
-0.10637338042359173
-0.44061395112816915
0.26580327930141245
-0.15889939497133757
-0.22330470556170315
-0.4447597705141995
0.19644189702981046
-0.09025579860423927
0.46883559822514276
0.05946763096093965
-0.16278599542550068
-0.4826860245131777
-0.1977915967810809
-0.11733129398701087
0.14275291722945932
0.045811894325998165
-0.01641619451255925
0.03426243073003102
0.38967452449954654
0.7516089178802301
-0.36222619708372644
0.02895299793228452
0.4474366308385487
0.07526047634497121
-0.10863132077738077
0.1282362041921003
0.08074458378940122
0.616839886041094
0.15197661865085468
0.17152487835743752
-0.003290033899163358
-0.22549409365392656
0.025287795179337248
-0.5174248991689441
0.0674217850014312
0.6016214204503569
0.30040761219426554
0.5082710326923017
-0.00526034777047761
0.12235738736653909
0.30528346479226853
0.3813486798338746
-0.05869860753753102
0.08061602129799857
0.34397127312604725
-0.0719114017302602
0.008988639704910097
-0.2530185787768846
-0.3736009205049981
-0.29727504833788193
0.028654258688616423
-0.11764418478648536
0.25881912367947785
0.289813839833715
0.1671149851628053
0.1569331732101452
-0.12695983733024072
0.07924679692717161
-0.3435823859184017
0.005348291361721182
0.2827206676396472
-0.004721469969961804
0.041797699385856715
-0.1539675308044652
0.1439176910633769
-0.025793589564073884
-0.14730378210308134
-0.0044272729324011054
-0.3603231358035879
-0.7463850512352291
-0.25260953703731226
-0.4897445792084412
-0.12827664128700136
-0.049338334719602604
-0.16570062409264918
-0.17165666673688598
-0.36731642474212833
0.006872633250907509
-0.16215468140411501
-0.40557411173638697
-0.13252997016683868
-0.4089830910654889
-0.15644034685355818
-0.1710618557815883
0.5394799536085072
-0.6440858359788534
0.03794362686308936
0.029908430307790414
-0.46260913784819696
-0.3424091033389025
-0.43208089170045594
-0.17940411395236103
-0.26981393232690914
0.11016290521063428
0.22180965866960572
-0.20377292679805808
0.13236082462569168
0.2971617373600169
0.20448157176785206
-0.2639326441176016
-0.30395535061005474
-0.31637362149782877
-0.46730208378369553
-0.250426816001718
-0.04500261466727015
-0.001885073123282504
0.017684142072429992
0.3989429562689529
0.2638321540342585
-0.12309681366214208
-0.30534394328046843
-0.3264027843330894
-0.06819879745343091
-0.018757981723868045
-0.18849397841492196
-0.42042634699853365
-0.40195240154786865
-0.15358768125855152
0.39767303628569445
-0.30309038324462145
-0.16087124831925861
-0.5083146488341939
-0.09647015480738472
0.8556459610372285
0.6932030446671716
-0.02158598811489753
0.010384166127268642
-0.02669353633416577
0.13635350177830394
-0.010492756607915054
-0.5541636069373782
-0.6493263104804959
0.08186166752949964
-0.06992204110752463
0.03749863953926985
0.060087949196128
0.03502710971256014
-0.2760461578534074
0.00033270256758821117
0.09418774639776856
0.23685835491010984
0.14653687281072217
0.1710336282146679
0.2219492227991991
-0.002571814764524378
0.2868329351165828
0.12969307222800727
-0.030253668439566117
0.037623285038310646
0.02010773304028529
0.38495072756880566
-0.6281525091614474
0.2918593358498689
0.22852459504390152
-0.20013727843050477
-0.10277033042094719
0.38273851158776806
0.5777082924643077
-0.32639682981528884
-0.07696562862334023
-0.3769580109030428
0.3953004898233566
-0.30774725750876514
0.2987328838890359
-0.25307100619502926
0.03364610364738868
0.13443279233582187
0.002772109589229179
-0.391213175429842
0.1578628081404705
0.04812193199024728
-0.030994413165848417
0.0326744742296496
-0.2127321536145267
-0.03284004046194235
0.08276695058400839
0.32545338133861684
0.19311519428951465
0.17595768593785197
-0.06967264127997254
0.13376674155348767
0.016418945831653018
-0.26655522717251834
0.3411888050714647
0.015585383698442812
0.48505466810198056
-0.15866202307434357
-0.22658597217057036
0.5807011217412733
-0.5000345333625539
0.07571312888903792
-0.8306397978083472
0.4757557683726241
0.0003128742244569203
-0.018707728966456318
0.36465048910303766
-0.07491368014224867
0.22773340974028708
-0.616283759626727
0.25555827387988495
-0.07240134808390178
-0.11707764539237427
-0.10922059451578722
0.48558662637309374
0.19311052534432466
0.18597766910334754
0.046179454654230304
-0.465642437150524
0.3328947484614458
0.12975109059438372
0.1360158336299713
-0.08913518626846574
-0.8953634970801015
0.22075126257299635
-0.9087268991586605
0.39880881722047506
0.38078487986013665
-0.136089645788433
-0.31638296729900706
-0.2850605684001076
-0.009228856543344622
-0.11640038925240447
0.3768630837653325
-0.04849845457011955
-0.220726183832167
0.04721976663299557
-0.2779685673887858
-0.27350094702741257
0.19269447085476377
0.09441951134047744
0.21534169931905278
0.3250828141601722
-0.07236979112222483
-0.021883884500822803
0.06786439267049267
0.05338550757751368
-0.3007545679651492
0.39189751702049924
0.007807210690262497
0.12064959299913706
0.27011627313551506
0.3147054740335043
-0.35725942847003034
0.14238068328746226
0.24532047330967768
0.00415731738297977
-0.23180316738403356
-0.28041652950391127
-0.23564981552604064
0.3154577688226616
0.13471016733019503
-0.021484931660620734
-0.18413660742248705
0.23677722597195697
-0.4661945967661396
0.12956242338887475
-0.16547992992335042
-0.20683724960928362
-0.025666935414655267
-0.0797497244040479
-0.36687559275243603
-0.27629154553497487
-0.33208181489335775
-0.07828659901114811
-0.060047120294334184
-0.15902505533117517
0.07949491126404926
0.31046935906990275
-0.12729376367286918
-0.22133288717133853
-0.04078639592050625
-0.08446051299735649
0.8327438218735201
0.8818864831556826
0.8868686379530796
0.8375636721094746
0.14878009149107155
0.23731729391241554
-0.33887544357332594
0.30495009954552443
-0.03619680850107224
-0.011784175361191092
-0.15044098139507403
-0.14484039179271885
-0.038648290480373174
-0.2802900249728613
-0.0728588667789119
0.13186211827246927
0.21801315077287012
-0.23148397654424524
-0.00046838346293170984
0.18319823368292554
-0.06200463353583396
0.14844482177406335
-0.30892384235227893
-0.08432888104166412
0.48444798495734515
0.13869841860856585
-0.16441225490200218
-0.2566510979759965
-0.0008694005454250861
-0.002823101055770974
0.6772836026046645
-0.3070375551765199
0.2300015345566488
0.2696951836622464
0.427207593788456
-0.5410569048533594
0.12768418894539682
-0.26915596759625143
-0.2108028168996189
-0.0054160609294891335
0.14176221746838452
0.17910495394815706
0.06487180087567529
0.13097026203414971
-0.12916900057234218
-0.0685005820291519
0.24683396866969204
0.08598823833770963
0.026217026125983412
0.4717520511200243
0.044272311117719225
0.006569556748578501
0.28950900693366094
-0.31728452571300153
-0.20057457545622104
0.07918409925065896
0.05229428268259791
-0.40526891481329824
0.2773639348544118
-0.008892611649872394
0.6458302685802568
-0.025754197552631808
-0.025602669968662728
0.22926918230573873
0.20920770651570575
0.5764577050522303
-0.29121217532628196
0.280538576026862
0.021547985925331383
0.3034200141150173
0.05157027334221239
0.1919286345235625
-0.7351772696155251
0.19161586101283032
0.4905396643511914
0.17364980977317124
-0.022513982648504696
0.014579195597713817
-0.10784943580843065
0.8082916377425036
0.10518587183044054
0.17046002050519932
-0.008737707043084532
0.6428744198721122
0.2064295122319534
0.17696192343340475
0.19143751338083728
-0.1116091205585353
-0.18737866108426013
0.035843922221012556
-0.4143991011860371
-0.21430364643804334
0.4102920044708757
0.018572169947301972
0.00873003527708099
-0.20172713066773185
-0.37227871175400395
0.4065061286049759
-0.029073222209884994
-0.10023638943829682
-0.12773261912620504
-0.24986675740432882
0.009909903066433329
-0.25725037990431376
-0.0263033507245251
0.0559770732628597
-0.31399998507238136
0.14171696796209352
0.14048998365105964
-0.1293528590039161
0.32032865651864617
0.09384842477012048
0.014814707370670022
-0.10741257792479993
0.2868236751266452
-0.03377897707220268
-0.16355839035666508
-1.21263334842322
0.16225173062774986
0.27248985246580776
-0.0754225500339652
0.7118012337412991
-0.13575442968706353
-0.17294889967044313
-0.021090824735011778
0.5893392366839291
-0.06596882225160923
0.4290521406466309
0.18228302422640064
0.3087796627622193
-0.6902741198439811
-0.11024193378225484
0.1798563390261792
-0.5637790248439056
0.1738967976227905
-0.16321137053670134
0.06991358149732224
-0.07043126480148026
0.6785105387657377
0.24218501653958033
-0.08345435077477979
-0.04398278475537021
0.1322514015790346
-0.14416139451712515
0.36402612095642833
-0.30460740413087
0.07019727159931818
-0.1902519145272699
0.5588379867069679
0.19421652241978113
0.7299347246238687
0.6519659188016349
-0.18120887890217444
0.00258364085927685
0.022051035028952077
0.08168285073570883
-0.2896752342421467
0.40717195921413646
0.20276464463611854
-0.2207899190089683
0.20561282996153304
0.0555514193108075
0.4380193889843658
0.019747567307101827
-0.09589239963969695
0.10393457407946569
0.41948286767962834
-0.07283922430031962
0.06704744969519698
-0.08130220511686563
0.13537361255796548
-0.1466663994624769
-0.28188049507456714
